digraph Tree {
node [shape=box, style="filled, rounded", color="black", fontname="helvetica"] ;
edge [fontname="helvetica"] ;
0 [label=<Nitrogen &le; 0.905<br/>gini = 0.9<br/>samples = 20000<br/>value = [2003, 2004, 2000, 2002, 2000, 1999, 2004, 2002, 1998<br/>1988]<br/>class = Kan Yao durian>, fillcolor="#ffffff"] ;
1 [label=<Nitrogen &le; 0.845<br/>gini = 0.842<br/>samples = 12369<br/>value = [2003.0, 2004.0, 2000.0, 194.0, 0.0, 1999.0, 2004.0, 0.0<br/>1998.0, 167.0]<br/>class = Kan Yao durian>, fillcolor="#ffffff"] ;
0 -> 1 [labeldistance=2.5, labelangle=45, headlabel="True"] ;
2 [label=<Potassium &le; 1.705<br/>gini = 0.5<br/>samples = 3330<br/>value = [1674, 0, 0, 0, 0, 1656, 0, 0, 0, 0]<br/>class = Chanee durian>, fillcolor="#fffefd"] ;
1 -> 2 ;
3 [label=<Humidity &le; 80.15<br/>gini = 0.075<br/>samples = 1723<br/>value = [67, 0, 0, 0, 0, 1656, 0, 0, 0, 0]<br/>class = Mon Thong durian>, fillcolor="#41a1e6"] ;
2 -> 3 ;
4 [label=<Phosphorus &le; 0.175<br/>gini = 0.042<br/>samples = 1692<br/>value = [36, 0, 0, 0, 0, 1656, 0, 0, 0, 0]<br/>class = Mon Thong durian>, fillcolor="#3d9fe6"] ;
3 -> 4 ;
5 [label=<Potassium &le; 1.695<br/>gini = 0.026<br/>samples = 1678<br/>value = [22, 0, 0, 0, 0, 1656, 0, 0, 0, 0]<br/>class = Mon Thong durian>, fillcolor="#3c9ee5"] ;
4 -> 5 ;
6 [label=<gini = 0.0<br/>samples = 1556<br/>value = [0, 0, 0, 0, 0, 1556, 0, 0, 0, 0]<br/>class = Mon Thong durian>, fillcolor="#399de5"] ;
5 -> 6 ;
7 [label=<Humidity &le; 74.9<br/>gini = 0.296<br/>samples = 122<br/>value = [22, 0, 0, 0, 0, 100, 0, 0, 0, 0]<br/>class = Mon Thong durian>, fillcolor="#65b3eb"] ;
5 -> 7 ;
8 [label=<gini = 0.0<br/>samples = 50<br/>value = [0, 0, 0, 0, 0, 50, 0, 0, 0, 0]<br/>class = Mon Thong durian>, fillcolor="#399de5"] ;
7 -> 8 ;
9 [label=<Phosphorus &le; 0.155<br/>gini = 0.424<br/>samples = 72<br/>value = [22, 0, 0, 0, 0, 50, 0, 0, 0, 0]<br/>class = Mon Thong durian>, fillcolor="#90c8f0"] ;
7 -> 9 ;
10 [label=<gini = 0.0<br/>samples = 22<br/>value = [0, 0, 0, 0, 0, 22, 0, 0, 0, 0]<br/>class = Mon Thong durian>, fillcolor="#399de5"] ;
9 -> 10 ;
11 [label=<Temperature &le; 26.35<br/>gini = 0.493<br/>samples = 50<br/>value = [22.0, 0.0, 0.0, 0.0, 0.0, 28.0, 0.0, 0.0, 0.0, 0.0]<br/>class = Mon Thong durian>, fillcolor="#d5eaf9"] ;
9 -> 11 ;
12 [label=<gini = 0.0<br/>samples = 12<br/>value = [0, 0, 0, 0, 0, 12, 0, 0, 0, 0]<br/>class = Mon Thong durian>, fillcolor="#399de5"] ;
11 -> 12 ;
13 [label=<Temperature &le; 30.25<br/>gini = 0.488<br/>samples = 38<br/>value = [22, 0, 0, 0, 0, 16, 0, 0, 0, 0]<br/>class = Chanee durian>, fillcolor="#f8ddc9"] ;
11 -> 13 ;
14 [label=<Precipitation_Q3 &le; 122.6<br/>gini = 0.457<br/>samples = 34<br/>value = [22, 0, 0, 0, 0, 12, 0, 0, 0, 0]<br/>class = Chanee durian>, fillcolor="#f3c6a5"] ;
13 -> 14 ;
15 [label=<Precipitation_Q3 &le; 120.45<br/>gini = 0.32<br/>samples = 5<br/>value = [1, 0, 0, 0, 0, 4, 0, 0, 0, 0]<br/>class = Mon Thong durian>, fillcolor="#6ab6ec"] ;
14 -> 15 ;
16 [label=<gini = 0.0<br/>samples = 1<br/>value = [1, 0, 0, 0, 0, 0, 0, 0, 0, 0]<br/>class = Chanee durian>, fillcolor="#e58139"] ;
15 -> 16 ;
17 [label=<gini = 0.0<br/>samples = 4<br/>value = [0, 0, 0, 0, 0, 4, 0, 0, 0, 0]<br/>class = Mon Thong durian>, fillcolor="#399de5"] ;
15 -> 17 ;
18 [label=<Precipitation_Q2 &le; 127.9<br/>gini = 0.4<br/>samples = 29<br/>value = [21, 0, 0, 0, 0, 8, 0, 0, 0, 0]<br/>class = Chanee durian>, fillcolor="#efb184"] ;
14 -> 18 ;
19 [label=<Precipitation_Q3 &le; 124.05<br/>gini = 0.266<br/>samples = 19<br/>value = [16, 0, 0, 0, 0, 3, 0, 0, 0, 0]<br/>class = Chanee durian>, fillcolor="#ea995e"] ;
18 -> 19 ;
20 [label=<gini = 0.0<br/>samples = 1<br/>value = [0, 0, 0, 0, 0, 1, 0, 0, 0, 0]<br/>class = Mon Thong durian>, fillcolor="#399de5"] ;
19 -> 20 ;
21 [label=<Precipitation_Q2 &le; 106.8<br/>gini = 0.198<br/>samples = 18<br/>value = [16, 0, 0, 0, 0, 2, 0, 0, 0, 0]<br/>class = Chanee durian>, fillcolor="#e89152"] ;
19 -> 21 ;
22 [label=<Temperature &le; 29.1<br/>gini = 0.48<br/>samples = 5<br/>value = [3, 0, 0, 0, 0, 2, 0, 0, 0, 0]<br/>class = Chanee durian>, fillcolor="#f6d5bd"] ;
21 -> 22 ;
23 [label=<gini = 0.0<br/>samples = 3<br/>value = [3, 0, 0, 0, 0, 0, 0, 0, 0, 0]<br/>class = Chanee durian>, fillcolor="#e58139"] ;
22 -> 23 ;
24 [label=<gini = 0.0<br/>samples = 2<br/>value = [0, 0, 0, 0, 0, 2, 0, 0, 0, 0]<br/>class = Mon Thong durian>, fillcolor="#399de5"] ;
22 -> 24 ;
25 [label=<gini = 0.0<br/>samples = 13<br/>value = [13, 0, 0, 0, 0, 0, 0, 0, 0, 0]<br/>class = Chanee durian>, fillcolor="#e58139"] ;
21 -> 25 ;
26 [label=<Precipitation_Q3 &le; 131.6<br/>gini = 0.5<br/>samples = 10<br/>value = [5, 0, 0, 0, 0, 5, 0, 0, 0, 0]<br/>class = Chanee durian>, fillcolor="#ffffff"] ;
18 -> 26 ;
27 [label=<gini = 0.0<br/>samples = 3<br/>value = [3, 0, 0, 0, 0, 0, 0, 0, 0, 0]<br/>class = Chanee durian>, fillcolor="#e58139"] ;
26 -> 27 ;
28 [label=<Precipitation_Q2 &le; 146.2<br/>gini = 0.408<br/>samples = 7<br/>value = [2, 0, 0, 0, 0, 5, 0, 0, 0, 0]<br/>class = Mon Thong durian>, fillcolor="#88c4ef"] ;
26 -> 28 ;
29 [label=<gini = 0.0<br/>samples = 5<br/>value = [0, 0, 0, 0, 0, 5, 0, 0, 0, 0]<br/>class = Mon Thong durian>, fillcolor="#399de5"] ;
28 -> 29 ;
30 [label=<gini = 0.0<br/>samples = 2<br/>value = [2, 0, 0, 0, 0, 0, 0, 0, 0, 0]<br/>class = Chanee durian>, fillcolor="#e58139"] ;
28 -> 30 ;
31 [label=<gini = 0.0<br/>samples = 4<br/>value = [0, 0, 0, 0, 0, 4, 0, 0, 0, 0]<br/>class = Mon Thong durian>, fillcolor="#399de5"] ;
13 -> 31 ;
32 [label=<gini = 0.0<br/>samples = 14<br/>value = [14, 0, 0, 0, 0, 0, 0, 0, 0, 0]<br/>class = Chanee durian>, fillcolor="#e58139"] ;
4 -> 32 ;
33 [label=<gini = 0.0<br/>samples = 31<br/>value = [31, 0, 0, 0, 0, 0, 0, 0, 0, 0]<br/>class = Chanee durian>, fillcolor="#e58139"] ;
3 -> 33 ;
34 [label=<gini = 0.0<br/>samples = 1607<br/>value = [1607, 0, 0, 0, 0, 0, 0, 0, 0, 0]<br/>class = Chanee durian>, fillcolor="#e58139"] ;
2 -> 34 ;
35 [label=<Potassium &le; 1.805<br/>gini = 0.8<br/>samples = 9039<br/>value = [329, 2004, 2000, 194, 0, 343, 2004, 0, 1998, 167]<br/>class = Kan Yao durian>, fillcolor="#ffffff"] ;
1 -> 35 ;
36 [label=<Phosphorus &le; 0.165<br/>gini = 0.742<br/>samples = 6881<br/>value = [168.0, 95.0, 2000.0, 106.0, 0.0, 343.0, 2004.0, 0.0<br/>1998.0, 167.0]<br/>class = Nok Krachip durian>, fillcolor="#ffffff"] ;
35 -> 36 ;
37 [label=<Temperature &le; 30.05<br/>gini = 0.612<br/>samples = 2268<br/>value = [65, 0, 966, 0, 0, 237, 1000, 0, 0, 0]<br/>class = Nok Krachip durian>, fillcolor="#fafafe"] ;
36 -> 37 ;
38 [label=<Nitrogen &le; 0.855<br/>gini = 0.604<br/>samples = 1903<br/>value = [65, 0, 966, 0, 0, 196, 676, 0, 0, 0]<br/>class = Krathum Thong durian>, fillcolor="#e0f9d0"] ;
37 -> 38 ;
39 [label=<Potassium &le; 1.705<br/>gini = 0.709<br/>samples = 520<br/>value = [65, 0, 164, 0, 0, 196, 95, 0, 0, 0]<br/>class = Mon Thong durian>, fillcolor="#edf6fd"] ;
38 -> 39 ;
40 [label=<Potassium &le; 1.595<br/>gini = 0.565<br/>samples = 329<br/>value = [7, 0, 81, 0, 0, 196, 45, 0, 0, 0]<br/>class = Mon Thong durian>, fillcolor="#a3d2f3"] ;
39 -> 40 ;
41 [label=<gini = 0.0<br/>samples = 78<br/>value = [0, 0, 0, 0, 0, 78, 0, 0, 0, 0]<br/>class = Mon Thong durian>, fillcolor="#399de5"] ;
40 -> 41 ;
42 [label=<Temperature &le; 25.95<br/>gini = 0.642<br/>samples = 251<br/>value = [7, 0, 81, 0, 0, 118, 45, 0, 0, 0]<br/>class = Mon Thong durian>, fillcolor="#d4eaf9"] ;
40 -> 42 ;
43 [label=<gini = 0.0<br/>samples = 23<br/>value = [0, 0, 0, 0, 0, 23, 0, 0, 0, 0]<br/>class = Mon Thong durian>, fillcolor="#399de5"] ;
42 -> 43 ;
44 [label=<Humidity &le; 80.25<br/>gini = 0.66<br/>samples = 228<br/>value = [7, 0, 81, 0, 0, 95, 45, 0, 0, 0]<br/>class = Mon Thong durian>, fillcolor="#ecf6fd"] ;
42 -> 44 ;
45 [label=<Precipitation_Q4 &le; 4.45<br/>gini = 0.652<br/>samples = 225<br/>value = [4, 0, 81, 0, 0, 95, 45, 0, 0, 0]<br/>class = Mon Thong durian>, fillcolor="#ecf5fc"] ;
44 -> 45 ;
46 [label=<Precipitation_Q3 &le; 128.85<br/>gini = 0.43<br/>samples = 11<br/>value = [0, 0, 8, 0, 0, 1, 2, 0, 0, 0]<br/>class = Krathum Thong durian>, fillcolor="#a7ee7b"] ;
45 -> 46 ;
47 [label=<gini = 0.0<br/>samples = 2<br/>value = [0, 0, 0, 0, 0, 0, 2, 0, 0, 0]<br/>class = Nok Krachip durian>, fillcolor="#3c39e5"] ;
46 -> 47 ;
48 [label=<UV_index &le; 4.75<br/>gini = 0.198<br/>samples = 9<br/>value = [0, 0, 8, 0, 0, 1, 0, 0, 0, 0]<br/>class = Krathum Thong durian>, fillcolor="#8ce852"] ;
46 -> 48 ;
49 [label=<gini = 0.0<br/>samples = 8<br/>value = [0, 0, 8, 0, 0, 0, 0, 0, 0, 0]<br/>class = Krathum Thong durian>, fillcolor="#7be539"] ;
48 -> 49 ;
50 [label=<gini = 0.0<br/>samples = 1<br/>value = [0, 0, 0, 0, 0, 1, 0, 0, 0, 0]<br/>class = Mon Thong durian>, fillcolor="#399de5"] ;
48 -> 50 ;
51 [label=<Precipitation_Q1 &le; 96.05<br/>gini = 0.65<br/>samples = 214<br/>value = [4.0, 0.0, 73.0, 0.0, 0.0, 94.0, 43.0, 0.0, 0.0, 0.0]<br/>class = Mon Thong durian>, fillcolor="#e2f0fb"] ;
45 -> 51 ;
52 [label=<Humidity &le; 76.45<br/>gini = 0.638<br/>samples = 200<br/>value = [3, 0, 68, 0, 0, 92, 37, 0, 0, 0]<br/>class = Mon Thong durian>, fillcolor="#dbedfa"] ;
51 -> 52 ;
53 [label=<Precipitation_Q2 &le; 130.35<br/>gini = 0.643<br/>samples = 130<br/>value = [0, 0, 50, 0, 0, 53, 27, 0, 0, 0]<br/>class = Mon Thong durian>, fillcolor="#f8fbfe"] ;
52 -> 53 ;
54 [label=<Precipitation_Q2 &le; 112.45<br/>gini = 0.664<br/>samples = 74<br/>value = [0, 0, 25, 0, 0, 27, 22, 0, 0, 0]<br/>class = Mon Thong durian>, fillcolor="#f7fbfe"] ;
53 -> 54 ;
55 [label=<Precipitation_Q3 &le; 144.0<br/>gini = 0.584<br/>samples = 32<br/>value = [0, 0, 11, 0, 0, 17, 4, 0, 0, 0]<br/>class = Mon Thong durian>, fillcolor="#c6e3f8"] ;
54 -> 55 ;
56 [label=<Precipitation_Q3 &le; 133.7<br/>gini = 0.548<br/>samples = 28<br/>value = [0, 0, 7, 0, 0, 17, 4, 0, 0, 0]<br/>class = Mon Thong durian>, fillcolor="#a1d0f3"] ;
55 -> 56 ;
57 [label=<Temperature &le; 27.95<br/>gini = 0.651<br/>samples = 17<br/>value = [0, 0, 6, 0, 0, 7, 4, 0, 0, 0]<br/>class = Mon Thong durian>, fillcolor="#edf6fd"] ;
56 -> 57 ;
58 [label=<Precipitation_Q2 &le; 104.3<br/>gini = 0.278<br/>samples = 6<br/>value = [0, 0, 0, 0, 0, 5, 1, 0, 0, 0]<br/>class = Mon Thong durian>, fillcolor="#61b1ea"] ;
57 -> 58 ;
59 [label=<gini = 0.0<br/>samples = 1<br/>value = [0, 0, 0, 0, 0, 0, 1, 0, 0, 0]<br/>class = Nok Krachip durian>, fillcolor="#3c39e5"] ;
58 -> 59 ;
60 [label=<gini = 0.0<br/>samples = 5<br/>value = [0, 0, 0, 0, 0, 5, 0, 0, 0, 0]<br/>class = Mon Thong durian>, fillcolor="#399de5"] ;
58 -> 60 ;
61 [label=<Precipitation_Q3 &le; 127.8<br/>gini = 0.595<br/>samples = 11<br/>value = [0, 0, 6, 0, 0, 2, 3, 0, 0, 0]<br/>class = Krathum Thong durian>, fillcolor="#cef5b5"] ;
57 -> 61 ;
62 [label=<Precipitation_Q3 &le; 121.95<br/>gini = 0.653<br/>samples = 7<br/>value = [0, 0, 2, 0, 0, 2, 3, 0, 0, 0]<br/>class = Nok Krachip durian>, fillcolor="#d8d7fa"] ;
61 -> 62 ;
63 [label=<Precipitation_Q4 &le; 28.85<br/>gini = 0.444<br/>samples = 3<br/>value = [0, 0, 1, 0, 0, 2, 0, 0, 0, 0]<br/>class = Mon Thong durian>, fillcolor="#9ccef2"] ;
62 -> 63 ;
64 [label=<gini = 0.0<br/>samples = 2<br/>value = [0, 0, 0, 0, 0, 2, 0, 0, 0, 0]<br/>class = Mon Thong durian>, fillcolor="#399de5"] ;
63 -> 64 ;
65 [label=<gini = 0.0<br/>samples = 1<br/>value = [0, 0, 1, 0, 0, 0, 0, 0, 0, 0]<br/>class = Krathum Thong durian>, fillcolor="#7be539"] ;
63 -> 65 ;
66 [label=<UV_index &le; 3.7<br/>gini = 0.375<br/>samples = 4<br/>value = [0, 0, 1, 0, 0, 0, 3, 0, 0, 0]<br/>class = Nok Krachip durian>, fillcolor="#7d7bee"] ;
62 -> 66 ;
67 [label=<gini = 0.0<br/>samples = 1<br/>value = [0, 0, 1, 0, 0, 0, 0, 0, 0, 0]<br/>class = Krathum Thong durian>, fillcolor="#7be539"] ;
66 -> 67 ;
68 [label=<gini = 0.0<br/>samples = 3<br/>value = [0, 0, 0, 0, 0, 0, 3, 0, 0, 0]<br/>class = Nok Krachip durian>, fillcolor="#3c39e5"] ;
66 -> 68 ;
69 [label=<gini = 0.0<br/>samples = 4<br/>value = [0, 0, 4, 0, 0, 0, 0, 0, 0, 0]<br/>class = Krathum Thong durian>, fillcolor="#7be539"] ;
61 -> 69 ;
70 [label=<UV_index &le; 2.4<br/>gini = 0.165<br/>samples = 11<br/>value = [0, 0, 1, 0, 0, 10, 0, 0, 0, 0]<br/>class = Mon Thong durian>, fillcolor="#4da7e8"] ;
56 -> 70 ;
71 [label=<gini = 0.0<br/>samples = 1<br/>value = [0, 0, 1, 0, 0, 0, 0, 0, 0, 0]<br/>class = Krathum Thong durian>, fillcolor="#7be539"] ;
70 -> 71 ;
72 [label=<gini = 0.0<br/>samples = 10<br/>value = [0, 0, 0, 0, 0, 10, 0, 0, 0, 0]<br/>class = Mon Thong durian>, fillcolor="#399de5"] ;
70 -> 72 ;
73 [label=<gini = 0.0<br/>samples = 4<br/>value = [0, 0, 4, 0, 0, 0, 0, 0, 0, 0]<br/>class = Krathum Thong durian>, fillcolor="#7be539"] ;
55 -> 73 ;
74 [label=<Potassium &le; 1.685<br/>gini = 0.649<br/>samples = 42<br/>value = [0, 0, 14, 0, 0, 10, 18, 0, 0, 0]<br/>class = Nok Krachip durian>, fillcolor="#e3e3fb"] ;
54 -> 74 ;
75 [label=<Humidity &le; 74.95<br/>gini = 0.631<br/>samples = 37<br/>value = [0, 0, 10, 0, 0, 9, 18, 0, 0, 0]<br/>class = Nok Krachip durian>, fillcolor="#c5c4f7"] ;
74 -> 75 ;
76 [label=<Potassium &le; 1.665<br/>gini = 0.614<br/>samples = 25<br/>value = [0, 0, 4, 0, 0, 9, 12, 0, 0, 0]<br/>class = Nok Krachip durian>, fillcolor="#dadafa"] ;
75 -> 76 ;
77 [label=<Precipitation_Q2 &le; 119.4<br/>gini = 0.635<br/>samples = 20<br/>value = [0, 0, 4, 0, 0, 9, 7, 0, 0, 0]<br/>class = Mon Thong durian>, fillcolor="#e1f0fb"] ;
76 -> 77 ;
78 [label=<Humidity &le; 74.5<br/>gini = 0.406<br/>samples = 8<br/>value = [0, 0, 1, 0, 0, 1, 6, 0, 0, 0]<br/>class = Nok Krachip durian>, fillcolor="#7472ec"] ;
77 -> 78 ;
79 [label=<Precipitation_Q2 &le; 114.35<br/>gini = 0.245<br/>samples = 7<br/>value = [0, 0, 0, 0, 0, 1, 6, 0, 0, 0]<br/>class = Nok Krachip durian>, fillcolor="#5d5ae9"] ;
78 -> 79 ;
80 [label=<Precipitation_Q4 &le; 26.85<br/>gini = 0.5<br/>samples = 2<br/>value = [0, 0, 0, 0, 0, 1, 1, 0, 0, 0]<br/>class = Mon Thong durian>, fillcolor="#ffffff"] ;
79 -> 80 ;
81 [label=<gini = 0.0<br/>samples = 1<br/>value = [0, 0, 0, 0, 0, 1, 0, 0, 0, 0]<br/>class = Mon Thong durian>, fillcolor="#399de5"] ;
80 -> 81 ;
82 [label=<gini = 0.0<br/>samples = 1<br/>value = [0, 0, 0, 0, 0, 0, 1, 0, 0, 0]<br/>class = Nok Krachip durian>, fillcolor="#3c39e5"] ;
80 -> 82 ;
83 [label=<gini = 0.0<br/>samples = 5<br/>value = [0, 0, 0, 0, 0, 0, 5, 0, 0, 0]<br/>class = Nok Krachip durian>, fillcolor="#3c39e5"] ;
79 -> 83 ;
84 [label=<gini = 0.0<br/>samples = 1<br/>value = [0, 0, 1, 0, 0, 0, 0, 0, 0, 0]<br/>class = Krathum Thong durian>, fillcolor="#7be539"] ;
78 -> 84 ;
85 [label=<Potassium &le; 1.625<br/>gini = 0.486<br/>samples = 12<br/>value = [0, 0, 3, 0, 0, 8, 1, 0, 0, 0]<br/>class = Mon Thong durian>, fillcolor="#91c9f1"] ;
77 -> 85 ;
86 [label=<Precipitation_Q4 &le; 43.75<br/>gini = 0.375<br/>samples = 4<br/>value = [0, 0, 3, 0, 0, 1, 0, 0, 0, 0]<br/>class = Krathum Thong durian>, fillcolor="#a7ee7b"] ;
85 -> 86 ;
87 [label=<gini = 0.0<br/>samples = 3<br/>value = [0, 0, 3, 0, 0, 0, 0, 0, 0, 0]<br/>class = Krathum Thong durian>, fillcolor="#7be539"] ;
86 -> 87 ;
88 [label=<gini = 0.0<br/>samples = 1<br/>value = [0, 0, 0, 0, 0, 1, 0, 0, 0, 0]<br/>class = Mon Thong durian>, fillcolor="#399de5"] ;
86 -> 88 ;
89 [label=<UV_index &le; 2.05<br/>gini = 0.219<br/>samples = 8<br/>value = [0, 0, 0, 0, 0, 7, 1, 0, 0, 0]<br/>class = Mon Thong durian>, fillcolor="#55abe9"] ;
85 -> 89 ;
90 [label=<gini = 0.0<br/>samples = 1<br/>value = [0, 0, 0, 0, 0, 0, 1, 0, 0, 0]<br/>class = Nok Krachip durian>, fillcolor="#3c39e5"] ;
89 -> 90 ;
91 [label=<gini = 0.0<br/>samples = 7<br/>value = [0, 0, 0, 0, 0, 7, 0, 0, 0, 0]<br/>class = Mon Thong durian>, fillcolor="#399de5"] ;
89 -> 91 ;
92 [label=<gini = 0.0<br/>samples = 5<br/>value = [0, 0, 0, 0, 0, 0, 5, 0, 0, 0]<br/>class = Nok Krachip durian>, fillcolor="#3c39e5"] ;
76 -> 92 ;
93 [label=<UV_index &le; 4.6<br/>gini = 0.5<br/>samples = 12<br/>value = [0, 0, 6, 0, 0, 0, 6, 0, 0, 0]<br/>class = Krathum Thong durian>, fillcolor="#ffffff"] ;
75 -> 93 ;
94 [label=<Precipitation_Q2 &le; 123.2<br/>gini = 0.444<br/>samples = 9<br/>value = [0, 0, 3, 0, 0, 0, 6, 0, 0, 0]<br/>class = Nok Krachip durian>, fillcolor="#9e9cf2"] ;
93 -> 94 ;
95 [label=<gini = 0.0<br/>samples = 4<br/>value = [0, 0, 0, 0, 0, 0, 4, 0, 0, 0]<br/>class = Nok Krachip durian>, fillcolor="#3c39e5"] ;
94 -> 95 ;
96 [label=<Precipitation_Q3 &le; 145.4<br/>gini = 0.48<br/>samples = 5<br/>value = [0, 0, 3, 0, 0, 0, 2, 0, 0, 0]<br/>class = Krathum Thong durian>, fillcolor="#d3f6bd"] ;
94 -> 96 ;
97 [label=<gini = 0.0<br/>samples = 3<br/>value = [0, 0, 3, 0, 0, 0, 0, 0, 0, 0]<br/>class = Krathum Thong durian>, fillcolor="#7be539"] ;
96 -> 97 ;
98 [label=<gini = 0.0<br/>samples = 2<br/>value = [0, 0, 0, 0, 0, 0, 2, 0, 0, 0]<br/>class = Nok Krachip durian>, fillcolor="#3c39e5"] ;
96 -> 98 ;
99 [label=<gini = 0.0<br/>samples = 3<br/>value = [0, 0, 3, 0, 0, 0, 0, 0, 0, 0]<br/>class = Krathum Thong durian>, fillcolor="#7be539"] ;
93 -> 99 ;
100 [label=<Precipitation_Q2 &le; 116.15<br/>gini = 0.32<br/>samples = 5<br/>value = [0, 0, 4, 0, 0, 1, 0, 0, 0, 0]<br/>class = Krathum Thong durian>, fillcolor="#9cec6a"] ;
74 -> 100 ;
101 [label=<gini = 0.0<br/>samples = 1<br/>value = [0, 0, 0, 0, 0, 1, 0, 0, 0, 0]<br/>class = Mon Thong durian>, fillcolor="#399de5"] ;
100 -> 101 ;
102 [label=<gini = 0.0<br/>samples = 4<br/>value = [0, 0, 4, 0, 0, 0, 0, 0, 0, 0]<br/>class = Krathum Thong durian>, fillcolor="#7be539"] ;
100 -> 102 ;
103 [label=<UV_index &le; 2.5<br/>gini = 0.577<br/>samples = 56<br/>value = [0, 0, 25, 0, 0, 26, 5, 0, 0, 0]<br/>class = Mon Thong durian>, fillcolor="#f9fcfe"] ;
53 -> 103 ;
104 [label=<Precipitation_Q1 &le; 61.7<br/>gini = 0.628<br/>samples = 11<br/>value = [0, 0, 2, 0, 0, 5, 4, 0, 0, 0]<br/>class = Mon Thong durian>, fillcolor="#e3f1fb"] ;
103 -> 104 ;
105 [label=<Precipitation_Q2 &le; 140.2<br/>gini = 0.5<br/>samples = 4<br/>value = [0, 0, 2, 0, 0, 0, 2, 0, 0, 0]<br/>class = Krathum Thong durian>, fillcolor="#ffffff"] ;
104 -> 105 ;
106 [label=<gini = 0.0<br/>samples = 2<br/>value = [0, 0, 2, 0, 0, 0, 0, 0, 0, 0]<br/>class = Krathum Thong durian>, fillcolor="#7be539"] ;
105 -> 106 ;
107 [label=<gini = 0.0<br/>samples = 2<br/>value = [0, 0, 0, 0, 0, 0, 2, 0, 0, 0]<br/>class = Nok Krachip durian>, fillcolor="#3c39e5"] ;
105 -> 107 ;
108 [label=<Temperature &le; 27.8<br/>gini = 0.408<br/>samples = 7<br/>value = [0, 0, 0, 0, 0, 5, 2, 0, 0, 0]<br/>class = Mon Thong durian>, fillcolor="#88c4ef"] ;
104 -> 108 ;
109 [label=<Precipitation_Q1 &le; 71.95<br/>gini = 0.444<br/>samples = 3<br/>value = [0, 0, 0, 0, 0, 1, 2, 0, 0, 0]<br/>class = Nok Krachip durian>, fillcolor="#9e9cf2"] ;
108 -> 109 ;
110 [label=<gini = 0.0<br/>samples = 1<br/>value = [0, 0, 0, 0, 0, 1, 0, 0, 0, 0]<br/>class = Mon Thong durian>, fillcolor="#399de5"] ;
109 -> 110 ;
111 [label=<gini = 0.0<br/>samples = 2<br/>value = [0, 0, 0, 0, 0, 0, 2, 0, 0, 0]<br/>class = Nok Krachip durian>, fillcolor="#3c39e5"] ;
109 -> 111 ;
112 [label=<gini = 0.0<br/>samples = 4<br/>value = [0, 0, 0, 0, 0, 4, 0, 0, 0, 0]<br/>class = Mon Thong durian>, fillcolor="#399de5"] ;
108 -> 112 ;
113 [label=<Precipitation_Q1 &le; 61.25<br/>gini = 0.52<br/>samples = 45<br/>value = [0, 0, 23, 0, 0, 21, 1, 0, 0, 0]<br/>class = Krathum Thong durian>, fillcolor="#f4fdef"] ;
103 -> 113 ;
114 [label=<Phosphorus &le; 0.155<br/>gini = 0.375<br/>samples = 12<br/>value = [0, 0, 3, 0, 0, 9, 0, 0, 0, 0]<br/>class = Mon Thong durian>, fillcolor="#7bbeee"] ;
113 -> 114 ;
115 [label=<gini = 0.0<br/>samples = 7<br/>value = [0, 0, 0, 0, 0, 7, 0, 0, 0, 0]<br/>class = Mon Thong durian>, fillcolor="#399de5"] ;
114 -> 115 ;
116 [label=<Potassium &le; 1.645<br/>gini = 0.48<br/>samples = 5<br/>value = [0, 0, 3, 0, 0, 2, 0, 0, 0, 0]<br/>class = Krathum Thong durian>, fillcolor="#d3f6bd"] ;
114 -> 116 ;
117 [label=<gini = 0.0<br/>samples = 2<br/>value = [0, 0, 0, 0, 0, 2, 0, 0, 0, 0]<br/>class = Mon Thong durian>, fillcolor="#399de5"] ;
116 -> 117 ;
118 [label=<gini = 0.0<br/>samples = 3<br/>value = [0, 0, 3, 0, 0, 0, 0, 0, 0, 0]<br/>class = Krathum Thong durian>, fillcolor="#7be539"] ;
116 -> 118 ;
119 [label=<Humidity &le; 71.05<br/>gini = 0.5<br/>samples = 33<br/>value = [0, 0, 20, 0, 0, 12, 1, 0, 0, 0]<br/>class = Krathum Thong durian>, fillcolor="#cdf5b4"] ;
113 -> 119 ;
120 [label=<gini = 0.0<br/>samples = 3<br/>value = [0, 0, 0, 0, 0, 3, 0, 0, 0, 0]<br/>class = Mon Thong durian>, fillcolor="#399de5"] ;
119 -> 120 ;
121 [label=<Potassium &le; 1.605<br/>gini = 0.464<br/>samples = 30<br/>value = [0, 0, 20, 0, 0, 9, 1, 0, 0, 0]<br/>class = Krathum Thong durian>, fillcolor="#baf197"] ;
119 -> 121 ;
122 [label=<Temperature &le; 28.55<br/>gini = 0.444<br/>samples = 3<br/>value = [0, 0, 0, 0, 0, 2, 1, 0, 0, 0]<br/>class = Mon Thong durian>, fillcolor="#9ccef2"] ;
121 -> 122 ;
123 [label=<gini = 0.0<br/>samples = 2<br/>value = [0, 0, 0, 0, 0, 2, 0, 0, 0, 0]<br/>class = Mon Thong durian>, fillcolor="#399de5"] ;
122 -> 123 ;
124 [label=<gini = 0.0<br/>samples = 1<br/>value = [0, 0, 0, 0, 0, 0, 1, 0, 0, 0]<br/>class = Nok Krachip durian>, fillcolor="#3c39e5"] ;
122 -> 124 ;
125 [label=<Humidity &le; 75.35<br/>gini = 0.384<br/>samples = 27<br/>value = [0, 0, 20, 0, 0, 7, 0, 0, 0, 0]<br/>class = Krathum Thong durian>, fillcolor="#a9ee7e"] ;
121 -> 125 ;
126 [label=<Precipitation_Q2 &le; 134.8<br/>gini = 0.188<br/>samples = 19<br/>value = [0, 0, 17, 0, 0, 2, 0, 0, 0, 0]<br/>class = Krathum Thong durian>, fillcolor="#8be850"] ;
125 -> 126 ;
127 [label=<Phosphorus &le; 0.155<br/>gini = 0.5<br/>samples = 4<br/>value = [0, 0, 2, 0, 0, 2, 0, 0, 0, 0]<br/>class = Krathum Thong durian>, fillcolor="#ffffff"] ;
126 -> 127 ;
128 [label=<gini = 0.0<br/>samples = 2<br/>value = [0, 0, 0, 0, 0, 2, 0, 0, 0, 0]<br/>class = Mon Thong durian>, fillcolor="#399de5"] ;
127 -> 128 ;
129 [label=<gini = 0.0<br/>samples = 2<br/>value = [0, 0, 2, 0, 0, 0, 0, 0, 0, 0]<br/>class = Krathum Thong durian>, fillcolor="#7be539"] ;
127 -> 129 ;
130 [label=<gini = 0.0<br/>samples = 15<br/>value = [0, 0, 15, 0, 0, 0, 0, 0, 0, 0]<br/>class = Krathum Thong durian>, fillcolor="#7be539"] ;
126 -> 130 ;
131 [label=<UV_index &le; 2.95<br/>gini = 0.469<br/>samples = 8<br/>value = [0, 0, 3, 0, 0, 5, 0, 0, 0, 0]<br/>class = Mon Thong durian>, fillcolor="#b0d8f5"] ;
125 -> 131 ;
132 [label=<Phosphorus &le; 0.155<br/>gini = 0.375<br/>samples = 4<br/>value = [0, 0, 3, 0, 0, 1, 0, 0, 0, 0]<br/>class = Krathum Thong durian>, fillcolor="#a7ee7b"] ;
131 -> 132 ;
133 [label=<gini = 0.0<br/>samples = 3<br/>value = [0, 0, 3, 0, 0, 0, 0, 0, 0, 0]<br/>class = Krathum Thong durian>, fillcolor="#7be539"] ;
132 -> 133 ;
134 [label=<gini = 0.0<br/>samples = 1<br/>value = [0, 0, 0, 0, 0, 1, 0, 0, 0, 0]<br/>class = Mon Thong durian>, fillcolor="#399de5"] ;
132 -> 134 ;
135 [label=<gini = 0.0<br/>samples = 4<br/>value = [0, 0, 0, 0, 0, 4, 0, 0, 0, 0]<br/>class = Mon Thong durian>, fillcolor="#399de5"] ;
131 -> 135 ;
136 [label=<UV_index &le; 3.75<br/>gini = 0.601<br/>samples = 70<br/>value = [3, 0, 18, 0, 0, 39, 10, 0, 0, 0]<br/>class = Mon Thong durian>, fillcolor="#afd7f4"] ;
52 -> 136 ;
137 [label=<Precipitation_Q3 &le; 127.95<br/>gini = 0.665<br/>samples = 47<br/>value = [2, 0, 14, 0, 0, 21, 10, 0, 0, 0]<br/>class = Mon Thong durian>, fillcolor="#d5eaf9"] ;
136 -> 137 ;
138 [label=<Precipitation_Q2 &le; 131.6<br/>gini = 0.298<br/>samples = 11<br/>value = [0, 0, 2, 0, 0, 9, 0, 0, 0, 0]<br/>class = Mon Thong durian>, fillcolor="#65b3eb"] ;
137 -> 138 ;
139 [label=<gini = 0.0<br/>samples = 9<br/>value = [0, 0, 0, 0, 0, 9, 0, 0, 0, 0]<br/>class = Mon Thong durian>, fillcolor="#399de5"] ;
138 -> 139 ;
140 [label=<gini = 0.0<br/>samples = 2<br/>value = [0, 0, 2, 0, 0, 0, 0, 0, 0, 0]<br/>class = Krathum Thong durian>, fillcolor="#7be539"] ;
138 -> 140 ;
141 [label=<Potassium &le; 1.635<br/>gini = 0.698<br/>samples = 36<br/>value = [2, 0, 12, 0, 0, 12, 10, 0, 0, 0]<br/>class = Krathum Thong durian>, fillcolor="#ffffff"] ;
137 -> 141 ;
142 [label=<Precipitation_Q4 &le; 26.85<br/>gini = 0.561<br/>samples = 14<br/>value = [0, 0, 1, 0, 0, 7, 6, 0, 0, 0]<br/>class = Mon Thong durian>, fillcolor="#e6f3fc"] ;
141 -> 142 ;
143 [label=<Precipitation_Q1 &le; 90.15<br/>gini = 0.32<br/>samples = 5<br/>value = [0, 0, 0, 0, 0, 1, 4, 0, 0, 0]<br/>class = Nok Krachip durian>, fillcolor="#6d6aec"] ;
142 -> 143 ;
144 [label=<gini = 0.0<br/>samples = 4<br/>value = [0, 0, 0, 0, 0, 0, 4, 0, 0, 0]<br/>class = Nok Krachip durian>, fillcolor="#3c39e5"] ;
143 -> 144 ;
145 [label=<gini = 0.0<br/>samples = 1<br/>value = [0, 0, 0, 0, 0, 1, 0, 0, 0, 0]<br/>class = Mon Thong durian>, fillcolor="#399de5"] ;
143 -> 145 ;
146 [label=<Precipitation_Q4 &le; 38.9<br/>gini = 0.494<br/>samples = 9<br/>value = [0, 0, 1, 0, 0, 6, 2, 0, 0, 0]<br/>class = Mon Thong durian>, fillcolor="#8ec7f0"] ;
142 -> 146 ;
147 [label=<Precipitation_Q3 &le; 140.4<br/>gini = 0.245<br/>samples = 7<br/>value = [0, 0, 0, 0, 0, 6, 1, 0, 0, 0]<br/>class = Mon Thong durian>, fillcolor="#5aade9"] ;
146 -> 147 ;
148 [label=<gini = 0.0<br/>samples = 6<br/>value = [0, 0, 0, 0, 0, 6, 0, 0, 0, 0]<br/>class = Mon Thong durian>, fillcolor="#399de5"] ;
147 -> 148 ;
149 [label=<gini = 0.0<br/>samples = 1<br/>value = [0, 0, 0, 0, 0, 0, 1, 0, 0, 0]<br/>class = Nok Krachip durian>, fillcolor="#3c39e5"] ;
147 -> 149 ;
150 [label=<Precipitation_Q3 &le; 135.2<br/>gini = 0.5<br/>samples = 2<br/>value = [0, 0, 1, 0, 0, 0, 1, 0, 0, 0]<br/>class = Krathum Thong durian>, fillcolor="#ffffff"] ;
146 -> 150 ;
151 [label=<gini = 0.0<br/>samples = 1<br/>value = [0, 0, 1, 0, 0, 0, 0, 0, 0, 0]<br/>class = Krathum Thong durian>, fillcolor="#7be539"] ;
150 -> 151 ;
152 [label=<gini = 0.0<br/>samples = 1<br/>value = [0, 0, 0, 0, 0, 0, 1, 0, 0, 0]<br/>class = Nok Krachip durian>, fillcolor="#3c39e5"] ;
150 -> 152 ;
153 [label=<UV_index &le; 2.9<br/>gini = 0.657<br/>samples = 22<br/>value = [2, 0, 11, 0, 0, 5, 4, 0, 0, 0]<br/>class = Krathum Thong durian>, fillcolor="#d0f6b9"] ;
141 -> 153 ;
154 [label=<Precipitation_Q4 &le; 27.1<br/>gini = 0.397<br/>samples = 11<br/>value = [0, 0, 8, 0, 0, 3, 0, 0, 0, 0]<br/>class = Krathum Thong durian>, fillcolor="#acef83"] ;
153 -> 154 ;
155 [label=<Humidity &le; 78.75<br/>gini = 0.375<br/>samples = 4<br/>value = [0, 0, 1, 0, 0, 3, 0, 0, 0, 0]<br/>class = Mon Thong durian>, fillcolor="#7bbeee"] ;
154 -> 155 ;
156 [label=<gini = 0.0<br/>samples = 3<br/>value = [0, 0, 0, 0, 0, 3, 0, 0, 0, 0]<br/>class = Mon Thong durian>, fillcolor="#399de5"] ;
155 -> 156 ;
157 [label=<gini = 0.0<br/>samples = 1<br/>value = [0, 0, 1, 0, 0, 0, 0, 0, 0, 0]<br/>class = Krathum Thong durian>, fillcolor="#7be539"] ;
155 -> 157 ;
158 [label=<gini = 0.0<br/>samples = 7<br/>value = [0, 0, 7, 0, 0, 0, 0, 0, 0, 0]<br/>class = Krathum Thong durian>, fillcolor="#7be539"] ;
154 -> 158 ;
159 [label=<Precipitation_Q3 &le; 145.8<br/>gini = 0.727<br/>samples = 11<br/>value = [2, 0, 3, 0, 0, 2, 4, 0, 0, 0]<br/>class = Nok Krachip durian>, fillcolor="#e7e6fc"] ;
153 -> 159 ;
160 [label=<Precipitation_Q1 &le; 66.25<br/>gini = 0.642<br/>samples = 9<br/>value = [2, 0, 3, 0, 0, 0, 4, 0, 0, 0]<br/>class = Nok Krachip durian>, fillcolor="#dedefb"] ;
159 -> 160 ;
161 [label=<gini = 0.0<br/>samples = 3<br/>value = [0, 0, 0, 0, 0, 0, 3, 0, 0, 0]<br/>class = Nok Krachip durian>, fillcolor="#3c39e5"] ;
160 -> 161 ;
162 [label=<Precipitation_Q1 &le; 77.4<br/>gini = 0.611<br/>samples = 6<br/>value = [2, 0, 3, 0, 0, 0, 1, 0, 0, 0]<br/>class = Krathum Thong durian>, fillcolor="#def8ce"] ;
160 -> 162 ;
163 [label=<gini = 0.0<br/>samples = 2<br/>value = [2, 0, 0, 0, 0, 0, 0, 0, 0, 0]<br/>class = Chanee durian>, fillcolor="#e58139"] ;
162 -> 163 ;
164 [label=<Precipitation_Q3 &le; 139.2<br/>gini = 0.375<br/>samples = 4<br/>value = [0, 0, 3, 0, 0, 0, 1, 0, 0, 0]<br/>class = Krathum Thong durian>, fillcolor="#a7ee7b"] ;
162 -> 164 ;
165 [label=<gini = 0.0<br/>samples = 3<br/>value = [0, 0, 3, 0, 0, 0, 0, 0, 0, 0]<br/>class = Krathum Thong durian>, fillcolor="#7be539"] ;
164 -> 165 ;
166 [label=<gini = 0.0<br/>samples = 1<br/>value = [0, 0, 0, 0, 0, 0, 1, 0, 0, 0]<br/>class = Nok Krachip durian>, fillcolor="#3c39e5"] ;
164 -> 166 ;
167 [label=<gini = 0.0<br/>samples = 2<br/>value = [0, 0, 0, 0, 0, 2, 0, 0, 0, 0]<br/>class = Mon Thong durian>, fillcolor="#399de5"] ;
159 -> 167 ;
168 [label=<Precipitation_Q3 &le; 126.15<br/>gini = 0.355<br/>samples = 23<br/>value = [1, 0, 4, 0, 0, 18, 0, 0, 0, 0]<br/>class = Mon Thong durian>, fillcolor="#6db7ec"] ;
136 -> 168 ;
169 [label=<Humidity &le; 78.8<br/>gini = 0.5<br/>samples = 2<br/>value = [1, 0, 1, 0, 0, 0, 0, 0, 0, 0]<br/>class = Chanee durian>, fillcolor="#ffffff"] ;
168 -> 169 ;
170 [label=<gini = 0.0<br/>samples = 1<br/>value = [1, 0, 0, 0, 0, 0, 0, 0, 0, 0]<br/>class = Chanee durian>, fillcolor="#e58139"] ;
169 -> 170 ;
171 [label=<gini = 0.0<br/>samples = 1<br/>value = [0, 0, 1, 0, 0, 0, 0, 0, 0, 0]<br/>class = Krathum Thong durian>, fillcolor="#7be539"] ;
169 -> 171 ;
172 [label=<Precipitation_Q3 &le; 149.15<br/>gini = 0.245<br/>samples = 21<br/>value = [0, 0, 3, 0, 0, 18, 0, 0, 0, 0]<br/>class = Mon Thong durian>, fillcolor="#5aade9"] ;
168 -> 172 ;
173 [label=<Precipitation_Q3 &le; 133.5<br/>gini = 0.18<br/>samples = 20<br/>value = [0, 0, 2, 0, 0, 18, 0, 0, 0, 0]<br/>class = Mon Thong durian>, fillcolor="#4fa8e8"] ;
172 -> 173 ;
174 [label=<Precipitation_Q3 &le; 131.05<br/>gini = 0.444<br/>samples = 6<br/>value = [0, 0, 2, 0, 0, 4, 0, 0, 0, 0]<br/>class = Mon Thong durian>, fillcolor="#9ccef2"] ;
173 -> 174 ;
175 [label=<gini = 0.0<br/>samples = 4<br/>value = [0, 0, 0, 0, 0, 4, 0, 0, 0, 0]<br/>class = Mon Thong durian>, fillcolor="#399de5"] ;
174 -> 175 ;
176 [label=<gini = 0.0<br/>samples = 2<br/>value = [0, 0, 2, 0, 0, 0, 0, 0, 0, 0]<br/>class = Krathum Thong durian>, fillcolor="#7be539"] ;
174 -> 176 ;
177 [label=<gini = 0.0<br/>samples = 14<br/>value = [0, 0, 0, 0, 0, 14, 0, 0, 0, 0]<br/>class = Mon Thong durian>, fillcolor="#399de5"] ;
173 -> 177 ;
178 [label=<gini = 0.0<br/>samples = 1<br/>value = [0, 0, 1, 0, 0, 0, 0, 0, 0, 0]<br/>class = Krathum Thong durian>, fillcolor="#7be539"] ;
172 -> 178 ;
179 [label=<Temperature &le; 27.45<br/>gini = 0.663<br/>samples = 14<br/>value = [1, 0, 5, 0, 0, 2, 6, 0, 0, 0]<br/>class = Nok Krachip durian>, fillcolor="#e9e9fc"] ;
51 -> 179 ;
180 [label=<Precipitation_Q4 &le; 13.2<br/>gini = 0.32<br/>samples = 5<br/>value = [0, 0, 4, 0, 0, 1, 0, 0, 0, 0]<br/>class = Krathum Thong durian>, fillcolor="#9cec6a"] ;
179 -> 180 ;
181 [label=<gini = 0.0<br/>samples = 1<br/>value = [0, 0, 0, 0, 0, 1, 0, 0, 0, 0]<br/>class = Mon Thong durian>, fillcolor="#399de5"] ;
180 -> 181 ;
182 [label=<gini = 0.0<br/>samples = 4<br/>value = [0, 0, 4, 0, 0, 0, 0, 0, 0, 0]<br/>class = Krathum Thong durian>, fillcolor="#7be539"] ;
180 -> 182 ;
183 [label=<UV_index &le; 3.75<br/>gini = 0.519<br/>samples = 9<br/>value = [1, 0, 1, 0, 0, 1, 6, 0, 0, 0]<br/>class = Nok Krachip durian>, fillcolor="#8583ef"] ;
179 -> 183 ;
184 [label=<Potassium &le; 1.615<br/>gini = 0.406<br/>samples = 8<br/>value = [1, 0, 1, 0, 0, 0, 6, 0, 0, 0]<br/>class = Nok Krachip durian>, fillcolor="#7472ec"] ;
183 -> 184 ;
185 [label=<gini = 0.0<br/>samples = 1<br/>value = [0, 0, 1, 0, 0, 0, 0, 0, 0, 0]<br/>class = Krathum Thong durian>, fillcolor="#7be539"] ;
184 -> 185 ;
186 [label=<Potassium &le; 1.695<br/>gini = 0.245<br/>samples = 7<br/>value = [1, 0, 0, 0, 0, 0, 6, 0, 0, 0]<br/>class = Nok Krachip durian>, fillcolor="#5d5ae9"] ;
184 -> 186 ;
187 [label=<gini = 0.0<br/>samples = 6<br/>value = [0, 0, 0, 0, 0, 0, 6, 0, 0, 0]<br/>class = Nok Krachip durian>, fillcolor="#3c39e5"] ;
186 -> 187 ;
188 [label=<gini = 0.0<br/>samples = 1<br/>value = [1, 0, 0, 0, 0, 0, 0, 0, 0, 0]<br/>class = Chanee durian>, fillcolor="#e58139"] ;
186 -> 188 ;
189 [label=<gini = 0.0<br/>samples = 1<br/>value = [0, 0, 0, 0, 0, 1, 0, 0, 0, 0]<br/>class = Mon Thong durian>, fillcolor="#399de5"] ;
183 -> 189 ;
190 [label=<gini = 0.0<br/>samples = 3<br/>value = [3, 0, 0, 0, 0, 0, 0, 0, 0, 0]<br/>class = Chanee durian>, fillcolor="#e58139"] ;
44 -> 190 ;
191 [label=<Humidity &le; 80.3<br/>gini = 0.65<br/>samples = 191<br/>value = [58, 0, 83, 0, 0, 0, 50, 0, 0, 0]<br/>class = Krathum Thong durian>, fillcolor="#e6fada"] ;
39 -> 191 ;
192 [label=<Humidity &le; 74.75<br/>gini = 0.613<br/>samples = 163<br/>value = [30.0, 0.0, 83.0, 0.0, 0.0, 0.0, 50.0, 0.0, 0.0, 0.0]<br/>class = Krathum Thong durian>, fillcolor="#d8f7c5"] ;
191 -> 192 ;
193 [label=<Precipitation_Q2 &le; 101.8<br/>gini = 0.335<br/>samples = 61<br/>value = [0, 0, 48, 0, 0, 0, 13, 0, 0, 0]<br/>class = Krathum Thong durian>, fillcolor="#9fec6f"] ;
192 -> 193 ;
194 [label=<gini = 0.0<br/>samples = 2<br/>value = [0, 0, 0, 0, 0, 0, 2, 0, 0, 0]<br/>class = Nok Krachip durian>, fillcolor="#3c39e5"] ;
193 -> 194 ;
195 [label=<Precipitation_Q1 &le; 53.4<br/>gini = 0.303<br/>samples = 59<br/>value = [0, 0, 48, 0, 0, 0, 11, 0, 0, 0]<br/>class = Krathum Thong durian>, fillcolor="#99eb66"] ;
193 -> 195 ;
196 [label=<gini = 0.0<br/>samples = 2<br/>value = [0, 0, 0, 0, 0, 0, 2, 0, 0, 0]<br/>class = Nok Krachip durian>, fillcolor="#3c39e5"] ;
195 -> 196 ;
197 [label=<Precipitation_Q2 &le; 144.65<br/>gini = 0.266<br/>samples = 57<br/>value = [0, 0, 48, 0, 0, 0, 9, 0, 0, 0]<br/>class = Krathum Thong durian>, fillcolor="#94ea5e"] ;
195 -> 197 ;
198 [label=<Precipitation_Q4 &le; 41.85<br/>gini = 0.204<br/>samples = 52<br/>value = [0, 0, 46, 0, 0, 0, 6, 0, 0, 0]<br/>class = Krathum Thong durian>, fillcolor="#8ce853"] ;
197 -> 198 ;
199 [label=<Humidity &le; 71.8<br/>gini = 0.122<br/>samples = 46<br/>value = [0, 0, 43, 0, 0, 0, 3, 0, 0, 0]<br/>class = Krathum Thong durian>, fillcolor="#84e747"] ;
198 -> 199 ;
200 [label=<Humidity &le; 71.65<br/>gini = 0.266<br/>samples = 19<br/>value = [0, 0, 16, 0, 0, 0, 3, 0, 0, 0]<br/>class = Krathum Thong durian>, fillcolor="#94ea5e"] ;
199 -> 200 ;
201 [label=<Precipitation_Q2 &le; 114.0<br/>gini = 0.111<br/>samples = 17<br/>value = [0, 0, 16, 0, 0, 0, 1, 0, 0, 0]<br/>class = Krathum Thong durian>, fillcolor="#83e745"] ;
200 -> 201 ;
202 [label=<Precipitation_Q2 &le; 105.8<br/>gini = 0.5<br/>samples = 2<br/>value = [0, 0, 1, 0, 0, 0, 1, 0, 0, 0]<br/>class = Krathum Thong durian>, fillcolor="#ffffff"] ;
201 -> 202 ;
203 [label=<gini = 0.0<br/>samples = 1<br/>value = [0, 0, 1, 0, 0, 0, 0, 0, 0, 0]<br/>class = Krathum Thong durian>, fillcolor="#7be539"] ;
202 -> 203 ;
204 [label=<gini = 0.0<br/>samples = 1<br/>value = [0, 0, 0, 0, 0, 0, 1, 0, 0, 0]<br/>class = Nok Krachip durian>, fillcolor="#3c39e5"] ;
202 -> 204 ;
205 [label=<gini = 0.0<br/>samples = 15<br/>value = [0, 0, 15, 0, 0, 0, 0, 0, 0, 0]<br/>class = Krathum Thong durian>, fillcolor="#7be539"] ;
201 -> 205 ;
206 [label=<gini = 0.0<br/>samples = 2<br/>value = [0, 0, 0, 0, 0, 0, 2, 0, 0, 0]<br/>class = Nok Krachip durian>, fillcolor="#3c39e5"] ;
200 -> 206 ;
207 [label=<gini = 0.0<br/>samples = 27<br/>value = [0, 0, 27, 0, 0, 0, 0, 0, 0, 0]<br/>class = Krathum Thong durian>, fillcolor="#7be539"] ;
199 -> 207 ;
208 [label=<Precipitation_Q4 &le; 48.95<br/>gini = 0.5<br/>samples = 6<br/>value = [0, 0, 3, 0, 0, 0, 3, 0, 0, 0]<br/>class = Krathum Thong durian>, fillcolor="#ffffff"] ;
198 -> 208 ;
209 [label=<UV_index &le; 2.5<br/>gini = 0.375<br/>samples = 4<br/>value = [0, 0, 1, 0, 0, 0, 3, 0, 0, 0]<br/>class = Nok Krachip durian>, fillcolor="#7d7bee"] ;
208 -> 209 ;
210 [label=<gini = 0.0<br/>samples = 1<br/>value = [0, 0, 1, 0, 0, 0, 0, 0, 0, 0]<br/>class = Krathum Thong durian>, fillcolor="#7be539"] ;
209 -> 210 ;
211 [label=<gini = 0.0<br/>samples = 3<br/>value = [0, 0, 0, 0, 0, 0, 3, 0, 0, 0]<br/>class = Nok Krachip durian>, fillcolor="#3c39e5"] ;
209 -> 211 ;
212 [label=<gini = 0.0<br/>samples = 2<br/>value = [0, 0, 2, 0, 0, 0, 0, 0, 0, 0]<br/>class = Krathum Thong durian>, fillcolor="#7be539"] ;
208 -> 212 ;
213 [label=<Precipitation_Q3 &le; 132.85<br/>gini = 0.48<br/>samples = 5<br/>value = [0, 0, 2, 0, 0, 0, 3, 0, 0, 0]<br/>class = Nok Krachip durian>, fillcolor="#bebdf6"] ;
197 -> 213 ;
214 [label=<gini = 0.0<br/>samples = 3<br/>value = [0, 0, 0, 0, 0, 0, 3, 0, 0, 0]<br/>class = Nok Krachip durian>, fillcolor="#3c39e5"] ;
213 -> 214 ;
215 [label=<gini = 0.0<br/>samples = 2<br/>value = [0, 0, 2, 0, 0, 0, 0, 0, 0, 0]<br/>class = Krathum Thong durian>, fillcolor="#7be539"] ;
213 -> 215 ;
216 [label=<Phosphorus &le; 0.155<br/>gini = 0.664<br/>samples = 102<br/>value = [30, 0, 35, 0, 0, 0, 37, 0, 0, 0]<br/>class = Nok Krachip durian>, fillcolor="#f9f9fe"] ;
192 -> 216 ;
217 [label=<Precipitation_Q1 &le; 89.35<br/>gini = 0.489<br/>samples = 40<br/>value = [0, 0, 17, 0, 0, 0, 23, 0, 0, 0]<br/>class = Nok Krachip durian>, fillcolor="#cccbf8"] ;
216 -> 217 ;
218 [label=<Humidity &le; 75.95<br/>gini = 0.5<br/>samples = 33<br/>value = [0, 0, 17, 0, 0, 0, 16, 0, 0, 0]<br/>class = Krathum Thong durian>, fillcolor="#f7fdf3"] ;
217 -> 218 ;
219 [label=<Precipitation_Q1 &le; 81.05<br/>gini = 0.219<br/>samples = 8<br/>value = [0, 0, 1, 0, 0, 0, 7, 0, 0, 0]<br/>class = Nok Krachip durian>, fillcolor="#5855e9"] ;
218 -> 219 ;
220 [label=<gini = 0.0<br/>samples = 7<br/>value = [0, 0, 0, 0, 0, 0, 7, 0, 0, 0]<br/>class = Nok Krachip durian>, fillcolor="#3c39e5"] ;
219 -> 220 ;
221 [label=<gini = 0.0<br/>samples = 1<br/>value = [0, 0, 1, 0, 0, 0, 0, 0, 0, 0]<br/>class = Krathum Thong durian>, fillcolor="#7be539"] ;
219 -> 221 ;
222 [label=<Humidity &le; 79.9<br/>gini = 0.461<br/>samples = 25<br/>value = [0, 0, 16, 0, 0, 0, 9, 0, 0, 0]<br/>class = Krathum Thong durian>, fillcolor="#c5f4a8"] ;
218 -> 222 ;
223 [label=<Precipitation_Q2 &le; 135.05<br/>gini = 0.397<br/>samples = 22<br/>value = [0, 0, 16, 0, 0, 0, 6, 0, 0, 0]<br/>class = Krathum Thong durian>, fillcolor="#acef83"] ;
222 -> 223 ;
224 [label=<Precipitation_Q2 &le; 111.15<br/>gini = 0.469<br/>samples = 16<br/>value = [0, 0, 10, 0, 0, 0, 6, 0, 0, 0]<br/>class = Krathum Thong durian>, fillcolor="#caf5b0"] ;
223 -> 224 ;
225 [label=<gini = 0.0<br/>samples = 5<br/>value = [0, 0, 5, 0, 0, 0, 0, 0, 0, 0]<br/>class = Krathum Thong durian>, fillcolor="#7be539"] ;
224 -> 225 ;
226 [label=<Precipitation_Q4 &le; 25.45<br/>gini = 0.496<br/>samples = 11<br/>value = [0, 0, 5, 0, 0, 0, 6, 0, 0, 0]<br/>class = Nok Krachip durian>, fillcolor="#dedefb"] ;
224 -> 226 ;
227 [label=<Precipitation_Q1 &le; 76.3<br/>gini = 0.32<br/>samples = 5<br/>value = [0, 0, 1, 0, 0, 0, 4, 0, 0, 0]<br/>class = Nok Krachip durian>, fillcolor="#6d6aec"] ;
226 -> 227 ;
228 [label=<gini = 0.0<br/>samples = 4<br/>value = [0, 0, 0, 0, 0, 0, 4, 0, 0, 0]<br/>class = Nok Krachip durian>, fillcolor="#3c39e5"] ;
227 -> 228 ;
229 [label=<gini = 0.0<br/>samples = 1<br/>value = [0, 0, 1, 0, 0, 0, 0, 0, 0, 0]<br/>class = Krathum Thong durian>, fillcolor="#7be539"] ;
227 -> 229 ;
230 [label=<Precipitation_Q2 &le; 130.65<br/>gini = 0.444<br/>samples = 6<br/>value = [0, 0, 4, 0, 0, 0, 2, 0, 0, 0]<br/>class = Krathum Thong durian>, fillcolor="#bdf29c"] ;
226 -> 230 ;
231 [label=<Precipitation_Q1 &le; 84.25<br/>gini = 0.32<br/>samples = 5<br/>value = [0, 0, 4, 0, 0, 0, 1, 0, 0, 0]<br/>class = Krathum Thong durian>, fillcolor="#9cec6a"] ;
230 -> 231 ;
232 [label=<gini = 0.0<br/>samples = 4<br/>value = [0, 0, 4, 0, 0, 0, 0, 0, 0, 0]<br/>class = Krathum Thong durian>, fillcolor="#7be539"] ;
231 -> 232 ;
233 [label=<gini = 0.0<br/>samples = 1<br/>value = [0, 0, 0, 0, 0, 0, 1, 0, 0, 0]<br/>class = Nok Krachip durian>, fillcolor="#3c39e5"] ;
231 -> 233 ;
234 [label=<gini = 0.0<br/>samples = 1<br/>value = [0, 0, 0, 0, 0, 0, 1, 0, 0, 0]<br/>class = Nok Krachip durian>, fillcolor="#3c39e5"] ;
230 -> 234 ;
235 [label=<gini = 0.0<br/>samples = 6<br/>value = [0, 0, 6, 0, 0, 0, 0, 0, 0, 0]<br/>class = Krathum Thong durian>, fillcolor="#7be539"] ;
223 -> 235 ;
236 [label=<gini = 0.0<br/>samples = 3<br/>value = [0, 0, 0, 0, 0, 0, 3, 0, 0, 0]<br/>class = Nok Krachip durian>, fillcolor="#3c39e5"] ;
222 -> 236 ;
237 [label=<gini = 0.0<br/>samples = 7<br/>value = [0, 0, 0, 0, 0, 0, 7, 0, 0, 0]<br/>class = Nok Krachip durian>, fillcolor="#3c39e5"] ;
217 -> 237 ;
238 [label=<UV_index &le; 3.3<br/>gini = 0.631<br/>samples = 62<br/>value = [30, 0, 18, 0, 0, 0, 14, 0, 0, 0]<br/>class = Chanee durian>, fillcolor="#f8ddc9"] ;
216 -> 238 ;
239 [label=<Precipitation_Q3 &le; 148.4<br/>gini = 0.494<br/>samples = 27<br/>value = [18, 0, 6, 0, 0, 0, 3, 0, 0, 0]<br/>class = Chanee durian>, fillcolor="#f0b78e"] ;
238 -> 239 ;
240 [label=<Potassium &le; 1.74<br/>gini = 0.422<br/>samples = 25<br/>value = [18, 0, 6, 0, 0, 0, 1, 0, 0, 0]<br/>class = Chanee durian>, fillcolor="#efaf82"] ;
239 -> 240 ;
241 [label=<Precipitation_Q3 &le; 139.3<br/>gini = 0.494<br/>samples = 9<br/>value = [4, 0, 5, 0, 0, 0, 0, 0, 0, 0]<br/>class = Krathum Thong durian>, fillcolor="#e5fad7"] ;
240 -> 241 ;
242 [label=<UV_index &le; 2.75<br/>gini = 0.444<br/>samples = 6<br/>value = [4, 0, 2, 0, 0, 0, 0, 0, 0, 0]<br/>class = Chanee durian>, fillcolor="#f2c09c"] ;
241 -> 242 ;
243 [label=<gini = 0.0<br/>samples = 3<br/>value = [3, 0, 0, 0, 0, 0, 0, 0, 0, 0]<br/>class = Chanee durian>, fillcolor="#e58139"] ;
242 -> 243 ;
244 [label=<Temperature &le; 27.85<br/>gini = 0.444<br/>samples = 3<br/>value = [1, 0, 2, 0, 0, 0, 0, 0, 0, 0]<br/>class = Krathum Thong durian>, fillcolor="#bdf29c"] ;
242 -> 244 ;
245 [label=<gini = 0.0<br/>samples = 2<br/>value = [0, 0, 2, 0, 0, 0, 0, 0, 0, 0]<br/>class = Krathum Thong durian>, fillcolor="#7be539"] ;
244 -> 245 ;
246 [label=<gini = 0.0<br/>samples = 1<br/>value = [1, 0, 0, 0, 0, 0, 0, 0, 0, 0]<br/>class = Chanee durian>, fillcolor="#e58139"] ;
244 -> 246 ;
247 [label=<gini = 0.0<br/>samples = 3<br/>value = [0, 0, 3, 0, 0, 0, 0, 0, 0, 0]<br/>class = Krathum Thong durian>, fillcolor="#7be539"] ;
241 -> 247 ;
248 [label=<Precipitation_Q3 &le; 121.75<br/>gini = 0.227<br/>samples = 16<br/>value = [14, 0, 1, 0, 0, 0, 1, 0, 0, 0]<br/>class = Chanee durian>, fillcolor="#e89253"] ;
240 -> 248 ;
249 [label=<Precipitation_Q3 &le; 120.75<br/>gini = 0.5<br/>samples = 2<br/>value = [0, 0, 1, 0, 0, 0, 1, 0, 0, 0]<br/>class = Krathum Thong durian>, fillcolor="#ffffff"] ;
248 -> 249 ;
250 [label=<gini = 0.0<br/>samples = 1<br/>value = [0, 0, 0, 0, 0, 0, 1, 0, 0, 0]<br/>class = Nok Krachip durian>, fillcolor="#3c39e5"] ;
249 -> 250 ;
251 [label=<gini = 0.0<br/>samples = 1<br/>value = [0, 0, 1, 0, 0, 0, 0, 0, 0, 0]<br/>class = Krathum Thong durian>, fillcolor="#7be539"] ;
249 -> 251 ;
252 [label=<gini = 0.0<br/>samples = 14<br/>value = [14, 0, 0, 0, 0, 0, 0, 0, 0, 0]<br/>class = Chanee durian>, fillcolor="#e58139"] ;
248 -> 252 ;
253 [label=<gini = 0.0<br/>samples = 2<br/>value = [0, 0, 0, 0, 0, 0, 2, 0, 0, 0]<br/>class = Nok Krachip durian>, fillcolor="#3c39e5"] ;
239 -> 253 ;
254 [label=<Precipitation_Q3 &le; 131.65<br/>gini = 0.666<br/>samples = 35<br/>value = [12, 0, 12, 0, 0, 0, 11, 0, 0, 0]<br/>class = Chanee durian>, fillcolor="#ffffff"] ;
238 -> 254 ;
255 [label=<Precipitation_Q4 &le; 38.35<br/>gini = 0.586<br/>samples = 16<br/>value = [4, 0, 3, 0, 0, 0, 9, 0, 0, 0]<br/>class = Nok Krachip durian>, fillcolor="#aeacf4"] ;
254 -> 255 ;
256 [label=<Precipitation_Q2 &le; 112.45<br/>gini = 0.661<br/>samples = 11<br/>value = [4, 0, 3, 0, 0, 0, 4, 0, 0, 0]<br/>class = Chanee durian>, fillcolor="#ffffff"] ;
255 -> 256 ;
257 [label=<Precipitation_Q3 &le; 130.85<br/>gini = 0.48<br/>samples = 5<br/>value = [0, 0, 3, 0, 0, 0, 2, 0, 0, 0]<br/>class = Krathum Thong durian>, fillcolor="#d3f6bd"] ;
256 -> 257 ;
258 [label=<UV_index &le; 3.9<br/>gini = 0.444<br/>samples = 3<br/>value = [0, 0, 1, 0, 0, 0, 2, 0, 0, 0]<br/>class = Nok Krachip durian>, fillcolor="#9e9cf2"] ;
257 -> 258 ;
259 [label=<gini = 0.0<br/>samples = 1<br/>value = [0, 0, 1, 0, 0, 0, 0, 0, 0, 0]<br/>class = Krathum Thong durian>, fillcolor="#7be539"] ;
258 -> 259 ;
260 [label=<gini = 0.0<br/>samples = 2<br/>value = [0, 0, 0, 0, 0, 0, 2, 0, 0, 0]<br/>class = Nok Krachip durian>, fillcolor="#3c39e5"] ;
258 -> 260 ;
261 [label=<gini = 0.0<br/>samples = 2<br/>value = [0, 0, 2, 0, 0, 0, 0, 0, 0, 0]<br/>class = Krathum Thong durian>, fillcolor="#7be539"] ;
257 -> 261 ;
262 [label=<Precipitation_Q2 &le; 121.2<br/>gini = 0.444<br/>samples = 6<br/>value = [4, 0, 0, 0, 0, 0, 2, 0, 0, 0]<br/>class = Chanee durian>, fillcolor="#f2c09c"] ;
256 -> 262 ;
263 [label=<gini = 0.0<br/>samples = 3<br/>value = [3, 0, 0, 0, 0, 0, 0, 0, 0, 0]<br/>class = Chanee durian>, fillcolor="#e58139"] ;
262 -> 263 ;
264 [label=<Precipitation_Q3 &le; 130.05<br/>gini = 0.444<br/>samples = 3<br/>value = [1, 0, 0, 0, 0, 0, 2, 0, 0, 0]<br/>class = Nok Krachip durian>, fillcolor="#9e9cf2"] ;
262 -> 264 ;
265 [label=<gini = 0.0<br/>samples = 2<br/>value = [0, 0, 0, 0, 0, 0, 2, 0, 0, 0]<br/>class = Nok Krachip durian>, fillcolor="#3c39e5"] ;
264 -> 265 ;
266 [label=<gini = 0.0<br/>samples = 1<br/>value = [1, 0, 0, 0, 0, 0, 0, 0, 0, 0]<br/>class = Chanee durian>, fillcolor="#e58139"] ;
264 -> 266 ;
267 [label=<gini = 0.0<br/>samples = 5<br/>value = [0, 0, 0, 0, 0, 0, 5, 0, 0, 0]<br/>class = Nok Krachip durian>, fillcolor="#3c39e5"] ;
255 -> 267 ;
268 [label=<Precipitation_Q1 &le; 68.75<br/>gini = 0.587<br/>samples = 19<br/>value = [8, 0, 9, 0, 0, 0, 2, 0, 0, 0]<br/>class = Krathum Thong durian>, fillcolor="#f3fded"] ;
254 -> 268 ;
269 [label=<Precipitation_Q4 &le; 5.25<br/>gini = 0.494<br/>samples = 9<br/>value = [6, 0, 2, 0, 0, 0, 1, 0, 0, 0]<br/>class = Chanee durian>, fillcolor="#f0b78e"] ;
268 -> 269 ;
270 [label=<Potassium &le; 1.75<br/>gini = 0.5<br/>samples = 2<br/>value = [0, 0, 1, 0, 0, 0, 1, 0, 0, 0]<br/>class = Krathum Thong durian>, fillcolor="#ffffff"] ;
269 -> 270 ;
271 [label=<gini = 0.0<br/>samples = 1<br/>value = [0, 0, 1, 0, 0, 0, 0, 0, 0, 0]<br/>class = Krathum Thong durian>, fillcolor="#7be539"] ;
270 -> 271 ;
272 [label=<gini = 0.0<br/>samples = 1<br/>value = [0, 0, 0, 0, 0, 0, 1, 0, 0, 0]<br/>class = Nok Krachip durian>, fillcolor="#3c39e5"] ;
270 -> 272 ;
273 [label=<Precipitation_Q1 &le; 53.05<br/>gini = 0.245<br/>samples = 7<br/>value = [6, 0, 1, 0, 0, 0, 0, 0, 0, 0]<br/>class = Chanee durian>, fillcolor="#e9965a"] ;
269 -> 273 ;
274 [label=<gini = 0.0<br/>samples = 1<br/>value = [0, 0, 1, 0, 0, 0, 0, 0, 0, 0]<br/>class = Krathum Thong durian>, fillcolor="#7be539"] ;
273 -> 274 ;
275 [label=<gini = 0.0<br/>samples = 6<br/>value = [6, 0, 0, 0, 0, 0, 0, 0, 0, 0]<br/>class = Chanee durian>, fillcolor="#e58139"] ;
273 -> 275 ;
276 [label=<UV_index &le; 4.6<br/>gini = 0.46<br/>samples = 10<br/>value = [2, 0, 7, 0, 0, 0, 1, 0, 0, 0]<br/>class = Krathum Thong durian>, fillcolor="#acef83"] ;
268 -> 276 ;
277 [label=<gini = 0.0<br/>samples = 6<br/>value = [0, 0, 6, 0, 0, 0, 0, 0, 0, 0]<br/>class = Krathum Thong durian>, fillcolor="#7be539"] ;
276 -> 277 ;
278 [label=<Temperature &le; 26.35<br/>gini = 0.625<br/>samples = 4<br/>value = [2, 0, 1, 0, 0, 0, 1, 0, 0, 0]<br/>class = Chanee durian>, fillcolor="#f6d5bd"] ;
276 -> 278 ;
279 [label=<gini = 0.0<br/>samples = 1<br/>value = [0, 0, 0, 0, 0, 0, 1, 0, 0, 0]<br/>class = Nok Krachip durian>, fillcolor="#3c39e5"] ;
278 -> 279 ;
280 [label=<Precipitation_Q3 &le; 136.6<br/>gini = 0.444<br/>samples = 3<br/>value = [2, 0, 1, 0, 0, 0, 0, 0, 0, 0]<br/>class = Chanee durian>, fillcolor="#f2c09c"] ;
278 -> 280 ;
281 [label=<gini = 0.0<br/>samples = 1<br/>value = [0, 0, 1, 0, 0, 0, 0, 0, 0, 0]<br/>class = Krathum Thong durian>, fillcolor="#7be539"] ;
280 -> 281 ;
282 [label=<gini = 0.0<br/>samples = 2<br/>value = [2, 0, 0, 0, 0, 0, 0, 0, 0, 0]<br/>class = Chanee durian>, fillcolor="#e58139"] ;
280 -> 282 ;
283 [label=<gini = 0.0<br/>samples = 28<br/>value = [28, 0, 0, 0, 0, 0, 0, 0, 0, 0]<br/>class = Chanee durian>, fillcolor="#e58139"] ;
191 -> 283 ;
284 [label=<Humidity &le; 78.95<br/>gini = 0.487<br/>samples = 1383<br/>value = [0.0, 0.0, 802.0, 0.0, 0.0, 0.0, 581.0, 0.0, 0.0, 0.0]<br/>class = Krathum Thong durian>, fillcolor="#dbf8c8"] ;
38 -> 284 ;
285 [label=<Precipitation_Q3 &le; 125.85<br/>gini = 0.482<br/>samples = 1228<br/>value = [0, 0, 731, 0, 0, 0, 497, 0, 0, 0]<br/>class = Krathum Thong durian>, fillcolor="#d5f7c0"] ;
284 -> 285 ;
286 [label=<Precipitation_Q3 &le; 125.65<br/>gini = 0.498<br/>samples = 263<br/>value = [0, 0, 139, 0, 0, 0, 124, 0, 0, 0]<br/>class = Krathum Thong durian>, fillcolor="#f1fcea"] ;
285 -> 286 ;
287 [label=<Humidity &le; 73.95<br/>gini = 0.496<br/>samples = 251<br/>value = [0, 0, 137, 0, 0, 0, 114, 0, 0, 0]<br/>class = Krathum Thong durian>, fillcolor="#e9fbde"] ;
286 -> 287 ;
288 [label=<Temperature &le; 29.05<br/>gini = 0.499<br/>samples = 113<br/>value = [0.0, 0.0, 54.0, 0.0, 0.0, 0.0, 59.0, 0.0, 0.0, 0.0]<br/>class = Nok Krachip durian>, fillcolor="#eeeefd"] ;
287 -> 288 ;
289 [label=<Temperature &le; 26.55<br/>gini = 0.495<br/>samples = 84<br/>value = [0.0, 0.0, 46.0, 0.0, 0.0, 0.0, 38.0, 0.0, 0.0, 0.0]<br/>class = Krathum Thong durian>, fillcolor="#e8fadd"] ;
288 -> 289 ;
290 [label=<Precipitation_Q3 &le; 122.75<br/>gini = 0.355<br/>samples = 13<br/>value = [0, 0, 3, 0, 0, 0, 10, 0, 0, 0]<br/>class = Nok Krachip durian>, fillcolor="#7674ed"] ;
289 -> 290 ;
291 [label=<Precipitation_Q3 &le; 121.25<br/>gini = 0.48<br/>samples = 5<br/>value = [0, 0, 3, 0, 0, 0, 2, 0, 0, 0]<br/>class = Krathum Thong durian>, fillcolor="#d3f6bd"] ;
290 -> 291 ;
292 [label=<gini = 0.0<br/>samples = 2<br/>value = [0, 0, 0, 0, 0, 0, 2, 0, 0, 0]<br/>class = Nok Krachip durian>, fillcolor="#3c39e5"] ;
291 -> 292 ;
293 [label=<gini = 0.0<br/>samples = 3<br/>value = [0, 0, 3, 0, 0, 0, 0, 0, 0, 0]<br/>class = Krathum Thong durian>, fillcolor="#7be539"] ;
291 -> 293 ;
294 [label=<gini = 0.0<br/>samples = 8<br/>value = [0, 0, 0, 0, 0, 0, 8, 0, 0, 0]<br/>class = Nok Krachip durian>, fillcolor="#3c39e5"] ;
290 -> 294 ;
295 [label=<Precipitation_Q4 &le; 8.95<br/>gini = 0.478<br/>samples = 71<br/>value = [0.0, 0.0, 43.0, 0.0, 0.0, 0.0, 28.0, 0.0, 0.0, 0.0]<br/>class = Krathum Thong durian>, fillcolor="#d1f6ba"] ;
289 -> 295 ;
296 [label=<Precipitation_Q2 &le; 103.2<br/>gini = 0.18<br/>samples = 10<br/>value = [0, 0, 9, 0, 0, 0, 1, 0, 0, 0]<br/>class = Krathum Thong durian>, fillcolor="#8ae84f"] ;
295 -> 296 ;
297 [label=<gini = 0.0<br/>samples = 1<br/>value = [0, 0, 0, 0, 0, 0, 1, 0, 0, 0]<br/>class = Nok Krachip durian>, fillcolor="#3c39e5"] ;
296 -> 297 ;
298 [label=<gini = 0.0<br/>samples = 9<br/>value = [0, 0, 9, 0, 0, 0, 0, 0, 0, 0]<br/>class = Krathum Thong durian>, fillcolor="#7be539"] ;
296 -> 298 ;
299 [label=<Precipitation_Q4 &le; 11.4<br/>gini = 0.493<br/>samples = 61<br/>value = [0, 0, 34, 0, 0, 0, 27, 0, 0, 0]<br/>class = Krathum Thong durian>, fillcolor="#e4fad6"] ;
295 -> 299 ;
300 [label=<Precipitation_Q3 &le; 120.4<br/>gini = 0.245<br/>samples = 7<br/>value = [0, 0, 1, 0, 0, 0, 6, 0, 0, 0]<br/>class = Nok Krachip durian>, fillcolor="#5d5ae9"] ;
299 -> 300 ;
301 [label=<gini = 0.0<br/>samples = 1<br/>value = [0, 0, 1, 0, 0, 0, 0, 0, 0, 0]<br/>class = Krathum Thong durian>, fillcolor="#7be539"] ;
300 -> 301 ;
302 [label=<gini = 0.0<br/>samples = 6<br/>value = [0, 0, 0, 0, 0, 0, 6, 0, 0, 0]<br/>class = Nok Krachip durian>, fillcolor="#3c39e5"] ;
300 -> 302 ;
303 [label=<Precipitation_Q3 &le; 123.05<br/>gini = 0.475<br/>samples = 54<br/>value = [0, 0, 33, 0, 0, 0, 21, 0, 0, 0]<br/>class = Krathum Thong durian>, fillcolor="#cff6b7"] ;
299 -> 303 ;
304 [label=<Precipitation_Q3 &le; 121.65<br/>gini = 0.397<br/>samples = 33<br/>value = [0, 0, 24, 0, 0, 0, 9, 0, 0, 0]<br/>class = Krathum Thong durian>, fillcolor="#acef83"] ;
303 -> 304 ;
305 [label=<UV_index &le; 2.45<br/>gini = 0.498<br/>samples = 15<br/>value = [0, 0, 7, 0, 0, 0, 8, 0, 0, 0]<br/>class = Nok Krachip durian>, fillcolor="#e7e6fc"] ;
304 -> 305 ;
306 [label=<gini = 0.0<br/>samples = 4<br/>value = [0, 0, 0, 0, 0, 0, 4, 0, 0, 0]<br/>class = Nok Krachip durian>, fillcolor="#3c39e5"] ;
305 -> 306 ;
307 [label=<Precipitation_Q4 &le; 15.3<br/>gini = 0.463<br/>samples = 11<br/>value = [0, 0, 7, 0, 0, 0, 4, 0, 0, 0]<br/>class = Krathum Thong durian>, fillcolor="#c6f4aa"] ;
305 -> 307 ;
308 [label=<gini = 0.0<br/>samples = 2<br/>value = [0, 0, 0, 0, 0, 0, 2, 0, 0, 0]<br/>class = Nok Krachip durian>, fillcolor="#3c39e5"] ;
307 -> 308 ;
309 [label=<Precipitation_Q3 &le; 121.3<br/>gini = 0.346<br/>samples = 9<br/>value = [0, 0, 7, 0, 0, 0, 2, 0, 0, 0]<br/>class = Krathum Thong durian>, fillcolor="#a1ec72"] ;
307 -> 309 ;
310 [label=<UV_index &le; 2.95<br/>gini = 0.219<br/>samples = 8<br/>value = [0, 0, 7, 0, 0, 0, 1, 0, 0, 0]<br/>class = Krathum Thong durian>, fillcolor="#8ee955"] ;
309 -> 310 ;
311 [label=<Nitrogen &le; 0.895<br/>gini = 0.5<br/>samples = 2<br/>value = [0, 0, 1, 0, 0, 0, 1, 0, 0, 0]<br/>class = Krathum Thong durian>, fillcolor="#ffffff"] ;
310 -> 311 ;
312 [label=<gini = 0.0<br/>samples = 1<br/>value = [0, 0, 0, 0, 0, 0, 1, 0, 0, 0]<br/>class = Nok Krachip durian>, fillcolor="#3c39e5"] ;
311 -> 312 ;
313 [label=<gini = 0.0<br/>samples = 1<br/>value = [0, 0, 1, 0, 0, 0, 0, 0, 0, 0]<br/>class = Krathum Thong durian>, fillcolor="#7be539"] ;
311 -> 313 ;
314 [label=<gini = 0.0<br/>samples = 6<br/>value = [0, 0, 6, 0, 0, 0, 0, 0, 0, 0]<br/>class = Krathum Thong durian>, fillcolor="#7be539"] ;
310 -> 314 ;
315 [label=<gini = 0.0<br/>samples = 1<br/>value = [0, 0, 0, 0, 0, 0, 1, 0, 0, 0]<br/>class = Nok Krachip durian>, fillcolor="#3c39e5"] ;
309 -> 315 ;
316 [label=<Precipitation_Q2 &le; 148.9<br/>gini = 0.105<br/>samples = 18<br/>value = [0, 0, 17, 0, 0, 0, 1, 0, 0, 0]<br/>class = Krathum Thong durian>, fillcolor="#83e745"] ;
304 -> 316 ;
317 [label=<gini = 0.0<br/>samples = 16<br/>value = [0, 0, 16, 0, 0, 0, 0, 0, 0, 0]<br/>class = Krathum Thong durian>, fillcolor="#7be539"] ;
316 -> 317 ;
318 [label=<Potassium &le; 1.66<br/>gini = 0.5<br/>samples = 2<br/>value = [0, 0, 1, 0, 0, 0, 1, 0, 0, 0]<br/>class = Krathum Thong durian>, fillcolor="#ffffff"] ;
316 -> 318 ;
319 [label=<gini = 0.0<br/>samples = 1<br/>value = [0, 0, 0, 0, 0, 0, 1, 0, 0, 0]<br/>class = Nok Krachip durian>, fillcolor="#3c39e5"] ;
318 -> 319 ;
320 [label=<gini = 0.0<br/>samples = 1<br/>value = [0, 0, 1, 0, 0, 0, 0, 0, 0, 0]<br/>class = Krathum Thong durian>, fillcolor="#7be539"] ;
318 -> 320 ;
321 [label=<Precipitation_Q3 &le; 124.55<br/>gini = 0.49<br/>samples = 21<br/>value = [0, 0, 9, 0, 0, 0, 12, 0, 0, 0]<br/>class = Nok Krachip durian>, fillcolor="#cecef8"] ;
303 -> 321 ;
322 [label=<Nitrogen &le; 0.875<br/>gini = 0.198<br/>samples = 9<br/>value = [0, 0, 1, 0, 0, 0, 8, 0, 0, 0]<br/>class = Nok Krachip durian>, fillcolor="#5452e8"] ;
321 -> 322 ;
323 [label=<gini = 0.0<br/>samples = 1<br/>value = [0, 0, 1, 0, 0, 0, 0, 0, 0, 0]<br/>class = Krathum Thong durian>, fillcolor="#7be539"] ;
322 -> 323 ;
324 [label=<gini = 0.0<br/>samples = 8<br/>value = [0, 0, 0, 0, 0, 0, 8, 0, 0, 0]<br/>class = Nok Krachip durian>, fillcolor="#3c39e5"] ;
322 -> 324 ;
325 [label=<Precipitation_Q2 &le; 145.65<br/>gini = 0.444<br/>samples = 12<br/>value = [0, 0, 8, 0, 0, 0, 4, 0, 0, 0]<br/>class = Krathum Thong durian>, fillcolor="#bdf29c"] ;
321 -> 325 ;
326 [label=<Humidity &le; 70.35<br/>gini = 0.32<br/>samples = 10<br/>value = [0, 0, 8, 0, 0, 0, 2, 0, 0, 0]<br/>class = Krathum Thong durian>, fillcolor="#9cec6a"] ;
325 -> 326 ;
327 [label=<gini = 0.0<br/>samples = 1<br/>value = [0, 0, 0, 0, 0, 0, 1, 0, 0, 0]<br/>class = Nok Krachip durian>, fillcolor="#3c39e5"] ;
326 -> 327 ;
328 [label=<Precipitation_Q1 &le; 54.8<br/>gini = 0.198<br/>samples = 9<br/>value = [0, 0, 8, 0, 0, 0, 1, 0, 0, 0]<br/>class = Krathum Thong durian>, fillcolor="#8ce852"] ;
326 -> 328 ;
329 [label=<Precipitation_Q4 &le; 32.65<br/>gini = 0.5<br/>samples = 2<br/>value = [0, 0, 1, 0, 0, 0, 1, 0, 0, 0]<br/>class = Krathum Thong durian>, fillcolor="#ffffff"] ;
328 -> 329 ;
330 [label=<gini = 0.0<br/>samples = 1<br/>value = [0, 0, 1, 0, 0, 0, 0, 0, 0, 0]<br/>class = Krathum Thong durian>, fillcolor="#7be539"] ;
329 -> 330 ;
331 [label=<gini = 0.0<br/>samples = 1<br/>value = [0, 0, 0, 0, 0, 0, 1, 0, 0, 0]<br/>class = Nok Krachip durian>, fillcolor="#3c39e5"] ;
329 -> 331 ;
332 [label=<gini = 0.0<br/>samples = 7<br/>value = [0, 0, 7, 0, 0, 0, 0, 0, 0, 0]<br/>class = Krathum Thong durian>, fillcolor="#7be539"] ;
328 -> 332 ;
333 [label=<gini = 0.0<br/>samples = 2<br/>value = [0, 0, 0, 0, 0, 0, 2, 0, 0, 0]<br/>class = Nok Krachip durian>, fillcolor="#3c39e5"] ;
325 -> 333 ;
334 [label=<Precipitation_Q4 &le; 41.6<br/>gini = 0.4<br/>samples = 29<br/>value = [0, 0, 8, 0, 0, 0, 21, 0, 0, 0]<br/>class = Nok Krachip durian>, fillcolor="#8684ef"] ;
288 -> 334 ;
335 [label=<Temperature &le; 29.85<br/>gini = 0.33<br/>samples = 24<br/>value = [0, 0, 5, 0, 0, 0, 19, 0, 0, 0]<br/>class = Nok Krachip durian>, fillcolor="#6f6dec"] ;
334 -> 335 ;
336 [label=<Precipitation_Q4 &le; 1.85<br/>gini = 0.245<br/>samples = 21<br/>value = [0, 0, 3, 0, 0, 0, 18, 0, 0, 0]<br/>class = Nok Krachip durian>, fillcolor="#5d5ae9"] ;
335 -> 336 ;
337 [label=<gini = 0.0<br/>samples = 1<br/>value = [0, 0, 1, 0, 0, 0, 0, 0, 0, 0]<br/>class = Krathum Thong durian>, fillcolor="#7be539"] ;
336 -> 337 ;
338 [label=<Nitrogen &le; 0.865<br/>gini = 0.18<br/>samples = 20<br/>value = [0, 0, 2, 0, 0, 0, 18, 0, 0, 0]<br/>class = Nok Krachip durian>, fillcolor="#524fe8"] ;
336 -> 338 ;
339 [label=<Temperature &le; 29.35<br/>gini = 0.444<br/>samples = 6<br/>value = [0, 0, 2, 0, 0, 0, 4, 0, 0, 0]<br/>class = Nok Krachip durian>, fillcolor="#9e9cf2"] ;
338 -> 339 ;
340 [label=<Humidity &le; 70.9<br/>gini = 0.444<br/>samples = 3<br/>value = [0, 0, 2, 0, 0, 0, 1, 0, 0, 0]<br/>class = Krathum Thong durian>, fillcolor="#bdf29c"] ;
339 -> 340 ;
341 [label=<gini = 0.0<br/>samples = 1<br/>value = [0, 0, 0, 0, 0, 0, 1, 0, 0, 0]<br/>class = Nok Krachip durian>, fillcolor="#3c39e5"] ;
340 -> 341 ;
342 [label=<gini = 0.0<br/>samples = 2<br/>value = [0, 0, 2, 0, 0, 0, 0, 0, 0, 0]<br/>class = Krathum Thong durian>, fillcolor="#7be539"] ;
340 -> 342 ;
343 [label=<gini = 0.0<br/>samples = 3<br/>value = [0, 0, 0, 0, 0, 0, 3, 0, 0, 0]<br/>class = Nok Krachip durian>, fillcolor="#3c39e5"] ;
339 -> 343 ;
344 [label=<gini = 0.0<br/>samples = 14<br/>value = [0, 0, 0, 0, 0, 0, 14, 0, 0, 0]<br/>class = Nok Krachip durian>, fillcolor="#3c39e5"] ;
338 -> 344 ;
345 [label=<Precipitation_Q3 &le; 125.45<br/>gini = 0.444<br/>samples = 3<br/>value = [0, 0, 2, 0, 0, 0, 1, 0, 0, 0]<br/>class = Krathum Thong durian>, fillcolor="#bdf29c"] ;
335 -> 345 ;
346 [label=<gini = 0.0<br/>samples = 2<br/>value = [0, 0, 2, 0, 0, 0, 0, 0, 0, 0]<br/>class = Krathum Thong durian>, fillcolor="#7be539"] ;
345 -> 346 ;
347 [label=<gini = 0.0<br/>samples = 1<br/>value = [0, 0, 0, 0, 0, 0, 1, 0, 0, 0]<br/>class = Nok Krachip durian>, fillcolor="#3c39e5"] ;
345 -> 347 ;
348 [label=<Temperature &le; 29.45<br/>gini = 0.48<br/>samples = 5<br/>value = [0, 0, 3, 0, 0, 0, 2, 0, 0, 0]<br/>class = Krathum Thong durian>, fillcolor="#d3f6bd"] ;
334 -> 348 ;
349 [label=<gini = 0.0<br/>samples = 2<br/>value = [0, 0, 0, 0, 0, 0, 2, 0, 0, 0]<br/>class = Nok Krachip durian>, fillcolor="#3c39e5"] ;
348 -> 349 ;
350 [label=<gini = 0.0<br/>samples = 3<br/>value = [0, 0, 3, 0, 0, 0, 0, 0, 0, 0]<br/>class = Krathum Thong durian>, fillcolor="#7be539"] ;
348 -> 350 ;
351 [label=<Precipitation_Q4 &le; 44.4<br/>gini = 0.479<br/>samples = 138<br/>value = [0, 0, 83, 0, 0, 0, 55, 0, 0, 0]<br/>class = Krathum Thong durian>, fillcolor="#d2f6bc"] ;
287 -> 351 ;
352 [label=<Potassium &le; 1.765<br/>gini = 0.46<br/>samples = 123<br/>value = [0, 0, 79, 0, 0, 0, 44, 0, 0, 0]<br/>class = Krathum Thong durian>, fillcolor="#c5f3a7"] ;
351 -> 352 ;
353 [label=<Potassium &le; 1.605<br/>gini = 0.428<br/>samples = 100<br/>value = [0, 0, 69, 0, 0, 0, 31, 0, 0, 0]<br/>class = Krathum Thong durian>, fillcolor="#b6f192"] ;
352 -> 353 ;
354 [label=<UV_index &le; 2.2<br/>gini = 0.408<br/>samples = 7<br/>value = [0, 0, 2, 0, 0, 0, 5, 0, 0, 0]<br/>class = Nok Krachip durian>, fillcolor="#8a88ef"] ;
353 -> 354 ;
355 [label=<gini = 0.0<br/>samples = 1<br/>value = [0, 0, 1, 0, 0, 0, 0, 0, 0, 0]<br/>class = Krathum Thong durian>, fillcolor="#7be539"] ;
354 -> 355 ;
356 [label=<UV_index &le; 4.05<br/>gini = 0.278<br/>samples = 6<br/>value = [0, 0, 1, 0, 0, 0, 5, 0, 0, 0]<br/>class = Nok Krachip durian>, fillcolor="#6361ea"] ;
354 -> 356 ;
357 [label=<gini = 0.0<br/>samples = 5<br/>value = [0, 0, 0, 0, 0, 0, 5, 0, 0, 0]<br/>class = Nok Krachip durian>, fillcolor="#3c39e5"] ;
356 -> 357 ;
358 [label=<gini = 0.0<br/>samples = 1<br/>value = [0, 0, 1, 0, 0, 0, 0, 0, 0, 0]<br/>class = Krathum Thong durian>, fillcolor="#7be539"] ;
356 -> 358 ;
359 [label=<Precipitation_Q1 &le; 98.8<br/>gini = 0.403<br/>samples = 93<br/>value = [0.0, 0.0, 67.0, 0.0, 0.0, 0.0, 26.0, 0.0, 0.0, 0.0]<br/>class = Krathum Thong durian>, fillcolor="#aeef86"] ;
353 -> 359 ;
360 [label=<Precipitation_Q2 &le; 133.45<br/>gini = 0.388<br/>samples = 91<br/>value = [0, 0, 67, 0, 0, 0, 24, 0, 0, 0]<br/>class = Krathum Thong durian>, fillcolor="#aaee80"] ;
359 -> 360 ;
361 [label=<Potassium &le; 1.665<br/>gini = 0.298<br/>samples = 55<br/>value = [0, 0, 45, 0, 0, 0, 10, 0, 0, 0]<br/>class = Krathum Thong durian>, fillcolor="#98eb65"] ;
360 -> 361 ;
362 [label=<Humidity &le; 77.0<br/>gini = 0.484<br/>samples = 17<br/>value = [0, 0, 10, 0, 0, 0, 7, 0, 0, 0]<br/>class = Krathum Thong durian>, fillcolor="#d7f7c4"] ;
361 -> 362 ;
363 [label=<UV_index &le; 3.75<br/>gini = 0.375<br/>samples = 12<br/>value = [0, 0, 9, 0, 0, 0, 3, 0, 0, 0]<br/>class = Krathum Thong durian>, fillcolor="#a7ee7b"] ;
362 -> 363 ;
364 [label=<gini = 0.0<br/>samples = 6<br/>value = [0, 0, 6, 0, 0, 0, 0, 0, 0, 0]<br/>class = Krathum Thong durian>, fillcolor="#7be539"] ;
363 -> 364 ;
365 [label=<Potassium &le; 1.615<br/>gini = 0.5<br/>samples = 6<br/>value = [0, 0, 3, 0, 0, 0, 3, 0, 0, 0]<br/>class = Krathum Thong durian>, fillcolor="#ffffff"] ;
363 -> 365 ;
366 [label=<gini = 0.0<br/>samples = 3<br/>value = [0, 0, 3, 0, 0, 0, 0, 0, 0, 0]<br/>class = Krathum Thong durian>, fillcolor="#7be539"] ;
365 -> 366 ;
367 [label=<gini = 0.0<br/>samples = 3<br/>value = [0, 0, 0, 0, 0, 0, 3, 0, 0, 0]<br/>class = Nok Krachip durian>, fillcolor="#3c39e5"] ;
365 -> 367 ;
368 [label=<Temperature &le; 27.2<br/>gini = 0.32<br/>samples = 5<br/>value = [0, 0, 1, 0, 0, 0, 4, 0, 0, 0]<br/>class = Nok Krachip durian>, fillcolor="#6d6aec"] ;
362 -> 368 ;
369 [label=<gini = 0.0<br/>samples = 1<br/>value = [0, 0, 1, 0, 0, 0, 0, 0, 0, 0]<br/>class = Krathum Thong durian>, fillcolor="#7be539"] ;
368 -> 369 ;
370 [label=<gini = 0.0<br/>samples = 4<br/>value = [0, 0, 0, 0, 0, 0, 4, 0, 0, 0]<br/>class = Nok Krachip durian>, fillcolor="#3c39e5"] ;
368 -> 370 ;
371 [label=<Precipitation_Q3 &le; 120.1<br/>gini = 0.145<br/>samples = 38<br/>value = [0, 0, 35, 0, 0, 0, 3, 0, 0, 0]<br/>class = Krathum Thong durian>, fillcolor="#86e74a"] ;
361 -> 371 ;
372 [label=<gini = 0.0<br/>samples = 1<br/>value = [0, 0, 0, 0, 0, 0, 1, 0, 0, 0]<br/>class = Nok Krachip durian>, fillcolor="#3c39e5"] ;
371 -> 372 ;
373 [label=<Precipitation_Q4 &le; 13.45<br/>gini = 0.102<br/>samples = 37<br/>value = [0, 0, 35, 0, 0, 0, 2, 0, 0, 0]<br/>class = Krathum Thong durian>, fillcolor="#83e644"] ;
371 -> 373 ;
374 [label=<Precipitation_Q4 &le; 13.2<br/>gini = 0.32<br/>samples = 10<br/>value = [0, 0, 8, 0, 0, 0, 2, 0, 0, 0]<br/>class = Krathum Thong durian>, fillcolor="#9cec6a"] ;
373 -> 374 ;
375 [label=<Humidity &le; 74.75<br/>gini = 0.198<br/>samples = 9<br/>value = [0, 0, 8, 0, 0, 0, 1, 0, 0, 0]<br/>class = Krathum Thong durian>, fillcolor="#8ce852"] ;
374 -> 375 ;
376 [label=<Humidity &le; 74.65<br/>gini = 0.444<br/>samples = 3<br/>value = [0, 0, 2, 0, 0, 0, 1, 0, 0, 0]<br/>class = Krathum Thong durian>, fillcolor="#bdf29c"] ;
375 -> 376 ;
377 [label=<gini = 0.0<br/>samples = 2<br/>value = [0, 0, 2, 0, 0, 0, 0, 0, 0, 0]<br/>class = Krathum Thong durian>, fillcolor="#7be539"] ;
376 -> 377 ;
378 [label=<gini = 0.0<br/>samples = 1<br/>value = [0, 0, 0, 0, 0, 0, 1, 0, 0, 0]<br/>class = Nok Krachip durian>, fillcolor="#3c39e5"] ;
376 -> 378 ;
379 [label=<gini = 0.0<br/>samples = 6<br/>value = [0, 0, 6, 0, 0, 0, 0, 0, 0, 0]<br/>class = Krathum Thong durian>, fillcolor="#7be539"] ;
375 -> 379 ;
380 [label=<gini = 0.0<br/>samples = 1<br/>value = [0, 0, 0, 0, 0, 0, 1, 0, 0, 0]<br/>class = Nok Krachip durian>, fillcolor="#3c39e5"] ;
374 -> 380 ;
381 [label=<gini = 0.0<br/>samples = 27<br/>value = [0, 0, 27, 0, 0, 0, 0, 0, 0, 0]<br/>class = Krathum Thong durian>, fillcolor="#7be539"] ;
373 -> 381 ;
382 [label=<Humidity &le; 78.45<br/>gini = 0.475<br/>samples = 36<br/>value = [0, 0, 22, 0, 0, 0, 14, 0, 0, 0]<br/>class = Krathum Thong durian>, fillcolor="#cff6b7"] ;
360 -> 382 ;
383 [label=<Temperature &le; 27.05<br/>gini = 0.444<br/>samples = 33<br/>value = [0, 0, 22, 0, 0, 0, 11, 0, 0, 0]<br/>class = Krathum Thong durian>, fillcolor="#bdf29c"] ;
382 -> 383 ;
384 [label=<UV_index &le; 4.9<br/>gini = 0.153<br/>samples = 12<br/>value = [0, 0, 11, 0, 0, 0, 1, 0, 0, 0]<br/>class = Krathum Thong durian>, fillcolor="#87e74b"] ;
383 -> 384 ;
385 [label=<gini = 0.0<br/>samples = 10<br/>value = [0, 0, 10, 0, 0, 0, 0, 0, 0, 0]<br/>class = Krathum Thong durian>, fillcolor="#7be539"] ;
384 -> 385 ;
386 [label=<Humidity &le; 74.6<br/>gini = 0.5<br/>samples = 2<br/>value = [0, 0, 1, 0, 0, 0, 1, 0, 0, 0]<br/>class = Krathum Thong durian>, fillcolor="#ffffff"] ;
384 -> 386 ;
387 [label=<gini = 0.0<br/>samples = 1<br/>value = [0, 0, 0, 0, 0, 0, 1, 0, 0, 0]<br/>class = Nok Krachip durian>, fillcolor="#3c39e5"] ;
386 -> 387 ;
388 [label=<gini = 0.0<br/>samples = 1<br/>value = [0, 0, 1, 0, 0, 0, 0, 0, 0, 0]<br/>class = Krathum Thong durian>, fillcolor="#7be539"] ;
386 -> 388 ;
389 [label=<Humidity &le; 77.25<br/>gini = 0.499<br/>samples = 21<br/>value = [0, 0, 11, 0, 0, 0, 10, 0, 0, 0]<br/>class = Krathum Thong durian>, fillcolor="#f3fded"] ;
383 -> 389 ;
390 [label=<Precipitation_Q1 &le; 65.35<br/>gini = 0.459<br/>samples = 14<br/>value = [0, 0, 5, 0, 0, 0, 9, 0, 0, 0]<br/>class = Nok Krachip durian>, fillcolor="#a8a7f3"] ;
389 -> 390 ;
391 [label=<gini = 0.0<br/>samples = 3<br/>value = [0, 0, 3, 0, 0, 0, 0, 0, 0, 0]<br/>class = Krathum Thong durian>, fillcolor="#7be539"] ;
390 -> 391 ;
392 [label=<Precipitation_Q4 &le; 42.05<br/>gini = 0.298<br/>samples = 11<br/>value = [0, 0, 2, 0, 0, 0, 9, 0, 0, 0]<br/>class = Nok Krachip durian>, fillcolor="#6765eb"] ;
390 -> 392 ;
393 [label=<gini = 0.0<br/>samples = 9<br/>value = [0, 0, 0, 0, 0, 0, 9, 0, 0, 0]<br/>class = Nok Krachip durian>, fillcolor="#3c39e5"] ;
392 -> 393 ;
394 [label=<gini = 0.0<br/>samples = 2<br/>value = [0, 0, 2, 0, 0, 0, 0, 0, 0, 0]<br/>class = Krathum Thong durian>, fillcolor="#7be539"] ;
392 -> 394 ;
395 [label=<Precipitation_Q4 &le; 33.1<br/>gini = 0.245<br/>samples = 7<br/>value = [0, 0, 6, 0, 0, 0, 1, 0, 0, 0]<br/>class = Krathum Thong durian>, fillcolor="#91e95a"] ;
389 -> 395 ;
396 [label=<gini = 0.0<br/>samples = 6<br/>value = [0, 0, 6, 0, 0, 0, 0, 0, 0, 0]<br/>class = Krathum Thong durian>, fillcolor="#7be539"] ;
395 -> 396 ;
397 [label=<gini = 0.0<br/>samples = 1<br/>value = [0, 0, 0, 0, 0, 0, 1, 0, 0, 0]<br/>class = Nok Krachip durian>, fillcolor="#3c39e5"] ;
395 -> 397 ;
398 [label=<gini = 0.0<br/>samples = 3<br/>value = [0, 0, 0, 0, 0, 0, 3, 0, 0, 0]<br/>class = Nok Krachip durian>, fillcolor="#3c39e5"] ;
382 -> 398 ;
399 [label=<gini = 0.0<br/>samples = 2<br/>value = [0, 0, 0, 0, 0, 0, 2, 0, 0, 0]<br/>class = Nok Krachip durian>, fillcolor="#3c39e5"] ;
359 -> 399 ;
400 [label=<Precipitation_Q3 &le; 123.65<br/>gini = 0.491<br/>samples = 23<br/>value = [0.0, 0.0, 10.0, 0.0, 0.0, 0.0, 13.0, 0.0, 0.0, 0.0]<br/>class = Nok Krachip durian>, fillcolor="#d2d1f9"] ;
352 -> 400 ;
401 [label=<Humidity &le; 77.75<br/>gini = 0.415<br/>samples = 17<br/>value = [0, 0, 5, 0, 0, 0, 12, 0, 0, 0]<br/>class = Nok Krachip durian>, fillcolor="#8d8bf0"] ;
400 -> 401 ;
402 [label=<Precipitation_Q3 &le; 120.9<br/>gini = 0.165<br/>samples = 11<br/>value = [0, 0, 1, 0, 0, 0, 10, 0, 0, 0]<br/>class = Nok Krachip durian>, fillcolor="#504de8"] ;
401 -> 402 ;
403 [label=<gini = 0.0<br/>samples = 1<br/>value = [0, 0, 1, 0, 0, 0, 0, 0, 0, 0]<br/>class = Krathum Thong durian>, fillcolor="#7be539"] ;
402 -> 403 ;
404 [label=<gini = 0.0<br/>samples = 10<br/>value = [0, 0, 0, 0, 0, 0, 10, 0, 0, 0]<br/>class = Nok Krachip durian>, fillcolor="#3c39e5"] ;
402 -> 404 ;
405 [label=<Precipitation_Q2 &le; 130.55<br/>gini = 0.444<br/>samples = 6<br/>value = [0, 0, 4, 0, 0, 0, 2, 0, 0, 0]<br/>class = Krathum Thong durian>, fillcolor="#bdf29c"] ;
401 -> 405 ;
406 [label=<gini = 0.0<br/>samples = 4<br/>value = [0, 0, 4, 0, 0, 0, 0, 0, 0, 0]<br/>class = Krathum Thong durian>, fillcolor="#7be539"] ;
405 -> 406 ;
407 [label=<gini = 0.0<br/>samples = 2<br/>value = [0, 0, 0, 0, 0, 0, 2, 0, 0, 0]<br/>class = Nok Krachip durian>, fillcolor="#3c39e5"] ;
405 -> 407 ;
408 [label=<Precipitation_Q3 &le; 125.3<br/>gini = 0.278<br/>samples = 6<br/>value = [0, 0, 5, 0, 0, 0, 1, 0, 0, 0]<br/>class = Krathum Thong durian>, fillcolor="#95ea61"] ;
400 -> 408 ;
409 [label=<gini = 0.0<br/>samples = 5<br/>value = [0, 0, 5, 0, 0, 0, 0, 0, 0, 0]<br/>class = Krathum Thong durian>, fillcolor="#7be539"] ;
408 -> 409 ;
410 [label=<gini = 0.0<br/>samples = 1<br/>value = [0, 0, 0, 0, 0, 0, 1, 0, 0, 0]<br/>class = Nok Krachip durian>, fillcolor="#3c39e5"] ;
408 -> 410 ;
411 [label=<Humidity &le; 74.3<br/>gini = 0.391<br/>samples = 15<br/>value = [0, 0, 4, 0, 0, 0, 11, 0, 0, 0]<br/>class = Nok Krachip durian>, fillcolor="#8381ee"] ;
351 -> 411 ;
412 [label=<gini = 0.0<br/>samples = 2<br/>value = [0, 0, 2, 0, 0, 0, 0, 0, 0, 0]<br/>class = Krathum Thong durian>, fillcolor="#7be539"] ;
411 -> 412 ;
413 [label=<Temperature &le; 29.15<br/>gini = 0.26<br/>samples = 13<br/>value = [0, 0, 2, 0, 0, 0, 11, 0, 0, 0]<br/>class = Nok Krachip durian>, fillcolor="#5f5dea"] ;
411 -> 413 ;
414 [label=<Precipitation_Q2 &le; 146.5<br/>gini = 0.153<br/>samples = 12<br/>value = [0, 0, 1, 0, 0, 0, 11, 0, 0, 0]<br/>class = Nok Krachip durian>, fillcolor="#4e4be7"] ;
413 -> 414 ;
415 [label=<gini = 0.0<br/>samples = 11<br/>value = [0, 0, 0, 0, 0, 0, 11, 0, 0, 0]<br/>class = Nok Krachip durian>, fillcolor="#3c39e5"] ;
414 -> 415 ;
416 [label=<gini = 0.0<br/>samples = 1<br/>value = [0, 0, 1, 0, 0, 0, 0, 0, 0, 0]<br/>class = Krathum Thong durian>, fillcolor="#7be539"] ;
414 -> 416 ;
417 [label=<gini = 0.0<br/>samples = 1<br/>value = [0, 0, 1, 0, 0, 0, 0, 0, 0, 0]<br/>class = Krathum Thong durian>, fillcolor="#7be539"] ;
413 -> 417 ;
418 [label=<Temperature &le; 29.3<br/>gini = 0.278<br/>samples = 12<br/>value = [0, 0, 2, 0, 0, 0, 10, 0, 0, 0]<br/>class = Nok Krachip durian>, fillcolor="#6361ea"] ;
286 -> 418 ;
419 [label=<gini = 0.0<br/>samples = 10<br/>value = [0, 0, 0, 0, 0, 0, 10, 0, 0, 0]<br/>class = Nok Krachip durian>, fillcolor="#3c39e5"] ;
418 -> 419 ;
420 [label=<gini = 0.0<br/>samples = 2<br/>value = [0, 0, 2, 0, 0, 0, 0, 0, 0, 0]<br/>class = Krathum Thong durian>, fillcolor="#7be539"] ;
418 -> 420 ;
421 [label=<Precipitation_Q4 &le; 31.35<br/>gini = 0.474<br/>samples = 965<br/>value = [0, 0, 592, 0, 0, 0, 373, 0, 0, 0]<br/>class = Krathum Thong durian>, fillcolor="#cef5b6"] ;
285 -> 421 ;
422 [label=<Humidity &le; 74.75<br/>gini = 0.487<br/>samples = 616<br/>value = [0, 0, 357, 0, 0, 0, 259, 0, 0, 0]<br/>class = Krathum Thong durian>, fillcolor="#dbf8c9"] ;
421 -> 422 ;
423 [label=<Humidity &le; 72.25<br/>gini = 0.498<br/>samples = 340<br/>value = [0, 0, 182, 0, 0, 0, 158, 0, 0, 0]<br/>class = Krathum Thong durian>, fillcolor="#eefce5"] ;
422 -> 423 ;
424 [label=<Precipitation_Q4 &le; 30.6<br/>gini = 0.468<br/>samples = 171<br/>value = [0, 0, 107, 0, 0, 0, 64, 0, 0, 0]<br/>class = Krathum Thong durian>, fillcolor="#caf5af"] ;
423 -> 424 ;
425 [label=<UV_index &le; 4.55<br/>gini = 0.455<br/>samples = 163<br/>value = [0, 0, 106, 0, 0, 0, 57, 0, 0, 0]<br/>class = Krathum Thong durian>, fillcolor="#c2f3a3"] ;
424 -> 425 ;
426 [label=<Precipitation_Q1 &le; 51.4<br/>gini = 0.413<br/>samples = 127<br/>value = [0, 0, 90, 0, 0, 0, 37, 0, 0, 0]<br/>class = Krathum Thong durian>, fillcolor="#b1f08a"] ;
425 -> 426 ;
427 [label=<gini = 0.0<br/>samples = 3<br/>value = [0, 0, 0, 0, 0, 0, 3, 0, 0, 0]<br/>class = Nok Krachip durian>, fillcolor="#3c39e5"] ;
426 -> 427 ;
428 [label=<Temperature &le; 29.45<br/>gini = 0.398<br/>samples = 124<br/>value = [0, 0, 90, 0, 0, 0, 34, 0, 0, 0]<br/>class = Krathum Thong durian>, fillcolor="#adef84"] ;
426 -> 428 ;
429 [label=<Temperature &le; 28.95<br/>gini = 0.429<br/>samples = 109<br/>value = [0, 0, 75, 0, 0, 0, 34, 0, 0, 0]<br/>class = Krathum Thong durian>, fillcolor="#b7f193"] ;
428 -> 429 ;
430 [label=<Precipitation_Q3 &le; 130.25<br/>gini = 0.393<br/>samples = 93<br/>value = [0, 0, 68, 0, 0, 0, 25, 0, 0, 0]<br/>class = Krathum Thong durian>, fillcolor="#acef82"] ;
429 -> 430 ;
431 [label=<Potassium &le; 1.69<br/>gini = 0.497<br/>samples = 13<br/>value = [0, 0, 6, 0, 0, 0, 7, 0, 0, 0]<br/>class = Nok Krachip durian>, fillcolor="#e3e3fb"] ;
430 -> 431 ;
432 [label=<Precipitation_Q3 &le; 126.6<br/>gini = 0.278<br/>samples = 6<br/>value = [0, 0, 5, 0, 0, 0, 1, 0, 0, 0]<br/>class = Krathum Thong durian>, fillcolor="#95ea61"] ;
431 -> 432 ;
433 [label=<gini = 0.0<br/>samples = 1<br/>value = [0, 0, 0, 0, 0, 0, 1, 0, 0, 0]<br/>class = Nok Krachip durian>, fillcolor="#3c39e5"] ;
432 -> 433 ;
434 [label=<gini = 0.0<br/>samples = 5<br/>value = [0, 0, 5, 0, 0, 0, 0, 0, 0, 0]<br/>class = Krathum Thong durian>, fillcolor="#7be539"] ;
432 -> 434 ;
435 [label=<Precipitation_Q1 &le; 56.75<br/>gini = 0.245<br/>samples = 7<br/>value = [0, 0, 1, 0, 0, 0, 6, 0, 0, 0]<br/>class = Nok Krachip durian>, fillcolor="#5d5ae9"] ;
431 -> 435 ;
436 [label=<gini = 0.0<br/>samples = 1<br/>value = [0, 0, 1, 0, 0, 0, 0, 0, 0, 0]<br/>class = Krathum Thong durian>, fillcolor="#7be539"] ;
435 -> 436 ;
437 [label=<gini = 0.0<br/>samples = 6<br/>value = [0, 0, 0, 0, 0, 0, 6, 0, 0, 0]<br/>class = Nok Krachip durian>, fillcolor="#3c39e5"] ;
435 -> 437 ;
438 [label=<Precipitation_Q4 &le; 20.25<br/>gini = 0.349<br/>samples = 80<br/>value = [0, 0, 62, 0, 0, 0, 18, 0, 0, 0]<br/>class = Krathum Thong durian>, fillcolor="#a1ed72"] ;
430 -> 438 ;
439 [label=<UV_index &le; 4.45<br/>gini = 0.229<br/>samples = 53<br/>value = [0, 0, 46, 0, 0, 0, 7, 0, 0, 0]<br/>class = Krathum Thong durian>, fillcolor="#8fe957"] ;
438 -> 439 ;
440 [label=<Precipitation_Q1 &le; 98.15<br/>gini = 0.204<br/>samples = 52<br/>value = [0, 0, 46, 0, 0, 0, 6, 0, 0, 0]<br/>class = Krathum Thong durian>, fillcolor="#8ce853"] ;
439 -> 440 ;
441 [label=<Humidity &le; 71.25<br/>gini = 0.177<br/>samples = 51<br/>value = [0, 0, 46, 0, 0, 0, 5, 0, 0, 0]<br/>class = Krathum Thong durian>, fillcolor="#89e84f"] ;
440 -> 441 ;
442 [label=<gini = 0.0<br/>samples = 25<br/>value = [0, 0, 25, 0, 0, 0, 0, 0, 0, 0]<br/>class = Krathum Thong durian>, fillcolor="#7be539"] ;
441 -> 442 ;
443 [label=<Nitrogen &le; 0.895<br/>gini = 0.311<br/>samples = 26<br/>value = [0, 0, 21, 0, 0, 0, 5, 0, 0, 0]<br/>class = Krathum Thong durian>, fillcolor="#9aeb68"] ;
441 -> 443 ;
444 [label=<Precipitation_Q4 &le; 9.3<br/>gini = 0.18<br/>samples = 20<br/>value = [0, 0, 18, 0, 0, 0, 2, 0, 0, 0]<br/>class = Krathum Thong durian>, fillcolor="#8ae84f"] ;
443 -> 444 ;
445 [label=<Precipitation_Q3 &le; 143.65<br/>gini = 0.408<br/>samples = 7<br/>value = [0, 0, 5, 0, 0, 0, 2, 0, 0, 0]<br/>class = Krathum Thong durian>, fillcolor="#b0ef88"] ;
444 -> 445 ;
446 [label=<Potassium &le; 1.65<br/>gini = 0.444<br/>samples = 3<br/>value = [0, 0, 1, 0, 0, 0, 2, 0, 0, 0]<br/>class = Nok Krachip durian>, fillcolor="#9e9cf2"] ;
445 -> 446 ;
447 [label=<gini = 0.0<br/>samples = 1<br/>value = [0, 0, 1, 0, 0, 0, 0, 0, 0, 0]<br/>class = Krathum Thong durian>, fillcolor="#7be539"] ;
446 -> 447 ;
448 [label=<gini = 0.0<br/>samples = 2<br/>value = [0, 0, 0, 0, 0, 0, 2, 0, 0, 0]<br/>class = Nok Krachip durian>, fillcolor="#3c39e5"] ;
446 -> 448 ;
449 [label=<gini = 0.0<br/>samples = 4<br/>value = [0, 0, 4, 0, 0, 0, 0, 0, 0, 0]<br/>class = Krathum Thong durian>, fillcolor="#7be539"] ;
445 -> 449 ;
450 [label=<gini = 0.0<br/>samples = 13<br/>value = [0, 0, 13, 0, 0, 0, 0, 0, 0, 0]<br/>class = Krathum Thong durian>, fillcolor="#7be539"] ;
444 -> 450 ;
451 [label=<Precipitation_Q2 &le; 130.85<br/>gini = 0.5<br/>samples = 6<br/>value = [0, 0, 3, 0, 0, 0, 3, 0, 0, 0]<br/>class = Krathum Thong durian>, fillcolor="#ffffff"] ;
443 -> 451 ;
452 [label=<gini = 0.0<br/>samples = 3<br/>value = [0, 0, 0, 0, 0, 0, 3, 0, 0, 0]<br/>class = Nok Krachip durian>, fillcolor="#3c39e5"] ;
451 -> 452 ;
453 [label=<gini = 0.0<br/>samples = 3<br/>value = [0, 0, 3, 0, 0, 0, 0, 0, 0, 0]<br/>class = Krathum Thong durian>, fillcolor="#7be539"] ;
451 -> 453 ;
454 [label=<gini = 0.0<br/>samples = 1<br/>value = [0, 0, 0, 0, 0, 0, 1, 0, 0, 0]<br/>class = Nok Krachip durian>, fillcolor="#3c39e5"] ;
440 -> 454 ;
455 [label=<gini = 0.0<br/>samples = 1<br/>value = [0, 0, 0, 0, 0, 0, 1, 0, 0, 0]<br/>class = Nok Krachip durian>, fillcolor="#3c39e5"] ;
439 -> 455 ;
456 [label=<Precipitation_Q1 &le; 67.1<br/>gini = 0.483<br/>samples = 27<br/>value = [0, 0, 16, 0, 0, 0, 11, 0, 0, 0]<br/>class = Krathum Thong durian>, fillcolor="#d6f7c1"] ;
438 -> 456 ;
457 [label=<Precipitation_Q3 &le; 144.4<br/>gini = 0.198<br/>samples = 9<br/>value = [0, 0, 8, 0, 0, 0, 1, 0, 0, 0]<br/>class = Krathum Thong durian>, fillcolor="#8ce852"] ;
456 -> 457 ;
458 [label=<gini = 0.0<br/>samples = 6<br/>value = [0, 0, 6, 0, 0, 0, 0, 0, 0, 0]<br/>class = Krathum Thong durian>, fillcolor="#7be539"] ;
457 -> 458 ;
459 [label=<Temperature &le; 28.05<br/>gini = 0.444<br/>samples = 3<br/>value = [0, 0, 2, 0, 0, 0, 1, 0, 0, 0]<br/>class = Krathum Thong durian>, fillcolor="#bdf29c"] ;
457 -> 459 ;
460 [label=<gini = 0.0<br/>samples = 1<br/>value = [0, 0, 0, 0, 0, 0, 1, 0, 0, 0]<br/>class = Nok Krachip durian>, fillcolor="#3c39e5"] ;
459 -> 460 ;
461 [label=<gini = 0.0<br/>samples = 2<br/>value = [0, 0, 2, 0, 0, 0, 0, 0, 0, 0]<br/>class = Krathum Thong durian>, fillcolor="#7be539"] ;
459 -> 461 ;
462 [label=<Temperature &le; 26.75<br/>gini = 0.494<br/>samples = 18<br/>value = [0, 0, 8, 0, 0, 0, 10, 0, 0, 0]<br/>class = Nok Krachip durian>, fillcolor="#d8d7fa"] ;
456 -> 462 ;
463 [label=<gini = 0.0<br/>samples = 3<br/>value = [0, 0, 3, 0, 0, 0, 0, 0, 0, 0]<br/>class = Krathum Thong durian>, fillcolor="#7be539"] ;
462 -> 463 ;
464 [label=<UV_index &le; 2.95<br/>gini = 0.444<br/>samples = 15<br/>value = [0, 0, 5, 0, 0, 0, 10, 0, 0, 0]<br/>class = Nok Krachip durian>, fillcolor="#9e9cf2"] ;
462 -> 464 ;
465 [label=<gini = 0.0<br/>samples = 4<br/>value = [0, 0, 0, 0, 0, 0, 4, 0, 0, 0]<br/>class = Nok Krachip durian>, fillcolor="#3c39e5"] ;
464 -> 465 ;
466 [label=<Precipitation_Q4 &le; 22.0<br/>gini = 0.496<br/>samples = 11<br/>value = [0, 0, 5, 0, 0, 0, 6, 0, 0, 0]<br/>class = Nok Krachip durian>, fillcolor="#dedefb"] ;
464 -> 466 ;
467 [label=<gini = 0.0<br/>samples = 3<br/>value = [0, 0, 0, 0, 0, 0, 3, 0, 0, 0]<br/>class = Nok Krachip durian>, fillcolor="#3c39e5"] ;
466 -> 467 ;
468 [label=<Precipitation_Q2 &le; 131.9<br/>gini = 0.469<br/>samples = 8<br/>value = [0, 0, 5, 0, 0, 0, 3, 0, 0, 0]<br/>class = Krathum Thong durian>, fillcolor="#caf5b0"] ;
466 -> 468 ;
469 [label=<gini = 0.0<br/>samples = 5<br/>value = [0, 0, 5, 0, 0, 0, 0, 0, 0, 0]<br/>class = Krathum Thong durian>, fillcolor="#7be539"] ;
468 -> 469 ;
470 [label=<gini = 0.0<br/>samples = 3<br/>value = [0, 0, 0, 0, 0, 0, 3, 0, 0, 0]<br/>class = Nok Krachip durian>, fillcolor="#3c39e5"] ;
468 -> 470 ;
471 [label=<Precipitation_Q2 &le; 104.65<br/>gini = 0.492<br/>samples = 16<br/>value = [0, 0, 7, 0, 0, 0, 9, 0, 0, 0]<br/>class = Nok Krachip durian>, fillcolor="#d4d3f9"] ;
429 -> 471 ;
472 [label=<gini = 0.0<br/>samples = 3<br/>value = [0, 0, 3, 0, 0, 0, 0, 0, 0, 0]<br/>class = Krathum Thong durian>, fillcolor="#7be539"] ;
471 -> 472 ;
473 [label=<Precipitation_Q4 &le; 2.8<br/>gini = 0.426<br/>samples = 13<br/>value = [0, 0, 4, 0, 0, 0, 9, 0, 0, 0]<br/>class = Nok Krachip durian>, fillcolor="#9391f1"] ;
471 -> 473 ;
474 [label=<gini = 0.0<br/>samples = 2<br/>value = [0, 0, 2, 0, 0, 0, 0, 0, 0, 0]<br/>class = Krathum Thong durian>, fillcolor="#7be539"] ;
473 -> 474 ;
475 [label=<Precipitation_Q3 &le; 132.6<br/>gini = 0.298<br/>samples = 11<br/>value = [0, 0, 2, 0, 0, 0, 9, 0, 0, 0]<br/>class = Nok Krachip durian>, fillcolor="#6765eb"] ;
473 -> 475 ;
476 [label=<Temperature &le; 29.2<br/>gini = 0.444<br/>samples = 3<br/>value = [0, 0, 2, 0, 0, 0, 1, 0, 0, 0]<br/>class = Krathum Thong durian>, fillcolor="#bdf29c"] ;
475 -> 476 ;
477 [label=<gini = 0.0<br/>samples = 1<br/>value = [0, 0, 0, 0, 0, 0, 1, 0, 0, 0]<br/>class = Nok Krachip durian>, fillcolor="#3c39e5"] ;
476 -> 477 ;
478 [label=<gini = 0.0<br/>samples = 2<br/>value = [0, 0, 2, 0, 0, 0, 0, 0, 0, 0]<br/>class = Krathum Thong durian>, fillcolor="#7be539"] ;
476 -> 478 ;
479 [label=<gini = 0.0<br/>samples = 8<br/>value = [0, 0, 0, 0, 0, 0, 8, 0, 0, 0]<br/>class = Nok Krachip durian>, fillcolor="#3c39e5"] ;
475 -> 479 ;
480 [label=<gini = 0.0<br/>samples = 15<br/>value = [0, 0, 15, 0, 0, 0, 0, 0, 0, 0]<br/>class = Krathum Thong durian>, fillcolor="#7be539"] ;
428 -> 480 ;
481 [label=<Precipitation_Q1 &le; 62.25<br/>gini = 0.494<br/>samples = 36<br/>value = [0, 0, 16, 0, 0, 0, 20, 0, 0, 0]<br/>class = Nok Krachip durian>, fillcolor="#d8d7fa"] ;
425 -> 481 ;
482 [label=<Precipitation_Q2 &le; 102.8<br/>gini = 0.198<br/>samples = 9<br/>value = [0, 0, 8, 0, 0, 0, 1, 0, 0, 0]<br/>class = Krathum Thong durian>, fillcolor="#8ce852"] ;
481 -> 482 ;
483 [label=<gini = 0.0<br/>samples = 1<br/>value = [0, 0, 0, 0, 0, 0, 1, 0, 0, 0]<br/>class = Nok Krachip durian>, fillcolor="#3c39e5"] ;
482 -> 483 ;
484 [label=<gini = 0.0<br/>samples = 8<br/>value = [0, 0, 8, 0, 0, 0, 0, 0, 0, 0]<br/>class = Krathum Thong durian>, fillcolor="#7be539"] ;
482 -> 484 ;
485 [label=<Nitrogen &le; 0.865<br/>gini = 0.417<br/>samples = 27<br/>value = [0, 0, 8, 0, 0, 0, 19, 0, 0, 0]<br/>class = Nok Krachip durian>, fillcolor="#8e8cf0"] ;
481 -> 485 ;
486 [label=<Precipitation_Q3 &le; 135.2<br/>gini = 0.32<br/>samples = 5<br/>value = [0, 0, 4, 0, 0, 0, 1, 0, 0, 0]<br/>class = Krathum Thong durian>, fillcolor="#9cec6a"] ;
485 -> 486 ;
487 [label=<gini = 0.0<br/>samples = 1<br/>value = [0, 0, 0, 0, 0, 0, 1, 0, 0, 0]<br/>class = Nok Krachip durian>, fillcolor="#3c39e5"] ;
486 -> 487 ;
488 [label=<gini = 0.0<br/>samples = 4<br/>value = [0, 0, 4, 0, 0, 0, 0, 0, 0, 0]<br/>class = Krathum Thong durian>, fillcolor="#7be539"] ;
486 -> 488 ;
489 [label=<Potassium &le; 1.605<br/>gini = 0.298<br/>samples = 22<br/>value = [0, 0, 4, 0, 0, 0, 18, 0, 0, 0]<br/>class = Nok Krachip durian>, fillcolor="#6765eb"] ;
485 -> 489 ;
490 [label=<gini = 0.0<br/>samples = 1<br/>value = [0, 0, 1, 0, 0, 0, 0, 0, 0, 0]<br/>class = Krathum Thong durian>, fillcolor="#7be539"] ;
489 -> 490 ;
491 [label=<Phosphorus &le; 0.155<br/>gini = 0.245<br/>samples = 21<br/>value = [0, 0, 3, 0, 0, 0, 18, 0, 0, 0]<br/>class = Nok Krachip durian>, fillcolor="#5d5ae9"] ;
489 -> 491 ;
492 [label=<gini = 0.0<br/>samples = 13<br/>value = [0, 0, 0, 0, 0, 0, 13, 0, 0, 0]<br/>class = Nok Krachip durian>, fillcolor="#3c39e5"] ;
491 -> 492 ;
493 [label=<Precipitation_Q4 &le; 8.6<br/>gini = 0.469<br/>samples = 8<br/>value = [0, 0, 3, 0, 0, 0, 5, 0, 0, 0]<br/>class = Nok Krachip durian>, fillcolor="#b1b0f5"] ;
491 -> 493 ;
494 [label=<gini = 0.0<br/>samples = 4<br/>value = [0, 0, 0, 0, 0, 0, 4, 0, 0, 0]<br/>class = Nok Krachip durian>, fillcolor="#3c39e5"] ;
493 -> 494 ;
495 [label=<Precipitation_Q2 &le; 118.45<br/>gini = 0.375<br/>samples = 4<br/>value = [0, 0, 3, 0, 0, 0, 1, 0, 0, 0]<br/>class = Krathum Thong durian>, fillcolor="#a7ee7b"] ;
493 -> 495 ;
496 [label=<gini = 0.0<br/>samples = 1<br/>value = [0, 0, 0, 0, 0, 0, 1, 0, 0, 0]<br/>class = Nok Krachip durian>, fillcolor="#3c39e5"] ;
495 -> 496 ;
497 [label=<gini = 0.0<br/>samples = 3<br/>value = [0, 0, 3, 0, 0, 0, 0, 0, 0, 0]<br/>class = Krathum Thong durian>, fillcolor="#7be539"] ;
495 -> 497 ;
498 [label=<Precipitation_Q3 &le; 127.1<br/>gini = 0.219<br/>samples = 8<br/>value = [0, 0, 1, 0, 0, 0, 7, 0, 0, 0]<br/>class = Nok Krachip durian>, fillcolor="#5855e9"] ;
424 -> 498 ;
499 [label=<gini = 0.0<br/>samples = 1<br/>value = [0, 0, 1, 0, 0, 0, 0, 0, 0, 0]<br/>class = Krathum Thong durian>, fillcolor="#7be539"] ;
498 -> 499 ;
500 [label=<gini = 0.0<br/>samples = 7<br/>value = [0, 0, 0, 0, 0, 0, 7, 0, 0, 0]<br/>class = Nok Krachip durian>, fillcolor="#3c39e5"] ;
498 -> 500 ;
501 [label=<Precipitation_Q1 &le; 95.45<br/>gini = 0.494<br/>samples = 169<br/>value = [0.0, 0.0, 75.0, 0.0, 0.0, 0.0, 94.0, 0.0, 0.0, 0.0]<br/>class = Nok Krachip durian>, fillcolor="#d8d7fa"] ;
423 -> 501 ;
502 [label=<Precipitation_Q3 &le; 141.35<br/>gini = 0.499<br/>samples = 154<br/>value = [0, 0, 73, 0, 0, 0, 81, 0, 0, 0]<br/>class = Nok Krachip durian>, fillcolor="#ecebfc"] ;
501 -> 502 ;
503 [label=<Precipitation_Q4 &le; 17.0<br/>gini = 0.496<br/>samples = 103<br/>value = [0, 0, 56, 0, 0, 0, 47, 0, 0, 0]<br/>class = Krathum Thong durian>, fillcolor="#eafbdf"] ;
502 -> 503 ;
504 [label=<Precipitation_Q1 &le; 80.25<br/>gini = 0.473<br/>samples = 47<br/>value = [0, 0, 18, 0, 0, 0, 29, 0, 0, 0]<br/>class = Nok Krachip durian>, fillcolor="#b5b4f5"] ;
503 -> 504 ;
505 [label=<Humidity &le; 74.05<br/>gini = 0.499<br/>samples = 29<br/>value = [0.0, 0.0, 15.0, 0.0, 0.0, 0.0, 14.0, 0.0, 0.0, 0.0]<br/>class = Krathum Thong durian>, fillcolor="#f6fdf2"] ;
504 -> 505 ;
506 [label=<Temperature &le; 27.9<br/>gini = 0.463<br/>samples = 22<br/>value = [0, 0, 14, 0, 0, 0, 8, 0, 0, 0]<br/>class = Krathum Thong durian>, fillcolor="#c6f4aa"] ;
505 -> 506 ;
507 [label=<UV_index &le; 2.05<br/>gini = 0.278<br/>samples = 12<br/>value = [0, 0, 10, 0, 0, 0, 2, 0, 0, 0]<br/>class = Krathum Thong durian>, fillcolor="#95ea61"] ;
506 -> 507 ;
508 [label=<gini = 0.0<br/>samples = 1<br/>value = [0, 0, 0, 0, 0, 0, 1, 0, 0, 0]<br/>class = Nok Krachip durian>, fillcolor="#3c39e5"] ;
507 -> 508 ;
509 [label=<Precipitation_Q2 &le; 104.55<br/>gini = 0.165<br/>samples = 11<br/>value = [0, 0, 10, 0, 0, 0, 1, 0, 0, 0]<br/>class = Krathum Thong durian>, fillcolor="#88e84d"] ;
507 -> 509 ;
510 [label=<gini = 0.0<br/>samples = 1<br/>value = [0, 0, 0, 0, 0, 0, 1, 0, 0, 0]<br/>class = Nok Krachip durian>, fillcolor="#3c39e5"] ;
509 -> 510 ;
511 [label=<gini = 0.0<br/>samples = 10<br/>value = [0, 0, 10, 0, 0, 0, 0, 0, 0, 0]<br/>class = Krathum Thong durian>, fillcolor="#7be539"] ;
509 -> 511 ;
512 [label=<Precipitation_Q2 &le; 128.3<br/>gini = 0.48<br/>samples = 10<br/>value = [0, 0, 4, 0, 0, 0, 6, 0, 0, 0]<br/>class = Nok Krachip durian>, fillcolor="#bebdf6"] ;
506 -> 512 ;
513 [label=<gini = 0.0<br/>samples = 6<br/>value = [0, 0, 0, 0, 0, 0, 6, 0, 0, 0]<br/>class = Nok Krachip durian>, fillcolor="#3c39e5"] ;
512 -> 513 ;
514 [label=<gini = 0.0<br/>samples = 4<br/>value = [0, 0, 4, 0, 0, 0, 0, 0, 0, 0]<br/>class = Krathum Thong durian>, fillcolor="#7be539"] ;
512 -> 514 ;
515 [label=<UV_index &le; 4.45<br/>gini = 0.245<br/>samples = 7<br/>value = [0, 0, 1, 0, 0, 0, 6, 0, 0, 0]<br/>class = Nok Krachip durian>, fillcolor="#5d5ae9"] ;
505 -> 515 ;
516 [label=<gini = 0.0<br/>samples = 6<br/>value = [0, 0, 0, 0, 0, 0, 6, 0, 0, 0]<br/>class = Nok Krachip durian>, fillcolor="#3c39e5"] ;
515 -> 516 ;
517 [label=<gini = 0.0<br/>samples = 1<br/>value = [0, 0, 1, 0, 0, 0, 0, 0, 0, 0]<br/>class = Krathum Thong durian>, fillcolor="#7be539"] ;
515 -> 517 ;
518 [label=<Precipitation_Q1 &le; 89.7<br/>gini = 0.278<br/>samples = 18<br/>value = [0, 0, 3, 0, 0, 0, 15, 0, 0, 0]<br/>class = Nok Krachip durian>, fillcolor="#6361ea"] ;
504 -> 518 ;
519 [label=<gini = 0.0<br/>samples = 13<br/>value = [0, 0, 0, 0, 0, 0, 13, 0, 0, 0]<br/>class = Nok Krachip durian>, fillcolor="#3c39e5"] ;
518 -> 519 ;
520 [label=<UV_index &le; 4.65<br/>gini = 0.48<br/>samples = 5<br/>value = [0, 0, 3, 0, 0, 0, 2, 0, 0, 0]<br/>class = Krathum Thong durian>, fillcolor="#d3f6bd"] ;
518 -> 520 ;
521 [label=<gini = 0.0<br/>samples = 3<br/>value = [0, 0, 3, 0, 0, 0, 0, 0, 0, 0]<br/>class = Krathum Thong durian>, fillcolor="#7be539"] ;
520 -> 521 ;
522 [label=<gini = 0.0<br/>samples = 2<br/>value = [0, 0, 0, 0, 0, 0, 2, 0, 0, 0]<br/>class = Nok Krachip durian>, fillcolor="#3c39e5"] ;
520 -> 522 ;
523 [label=<Precipitation_Q4 &le; 26.5<br/>gini = 0.436<br/>samples = 56<br/>value = [0, 0, 38, 0, 0, 0, 18, 0, 0, 0]<br/>class = Krathum Thong durian>, fillcolor="#baf197"] ;
503 -> 523 ;
524 [label=<Potassium &le; 1.765<br/>gini = 0.313<br/>samples = 36<br/>value = [0, 0, 29, 0, 0, 0, 7, 0, 0, 0]<br/>class = Krathum Thong durian>, fillcolor="#9beb69"] ;
523 -> 524 ;
525 [label=<Humidity &le; 73.15<br/>gini = 0.231<br/>samples = 30<br/>value = [0, 0, 26, 0, 0, 0, 4, 0, 0, 0]<br/>class = Krathum Thong durian>, fillcolor="#8fe957"] ;
524 -> 525 ;
526 [label=<Precipitation_Q4 &le; 20.8<br/>gini = 0.397<br/>samples = 11<br/>value = [0, 0, 8, 0, 0, 0, 3, 0, 0, 0]<br/>class = Krathum Thong durian>, fillcolor="#acef83"] ;
525 -> 526 ;
527 [label=<Precipitation_Q4 &le; 19.45<br/>gini = 0.48<br/>samples = 5<br/>value = [0, 0, 2, 0, 0, 0, 3, 0, 0, 0]<br/>class = Nok Krachip durian>, fillcolor="#bebdf6"] ;
526 -> 527 ;
528 [label=<Nitrogen &le; 0.895<br/>gini = 0.444<br/>samples = 3<br/>value = [0, 0, 2, 0, 0, 0, 1, 0, 0, 0]<br/>class = Krathum Thong durian>, fillcolor="#bdf29c"] ;
527 -> 528 ;
529 [label=<gini = 0.0<br/>samples = 2<br/>value = [0, 0, 2, 0, 0, 0, 0, 0, 0, 0]<br/>class = Krathum Thong durian>, fillcolor="#7be539"] ;
528 -> 529 ;
530 [label=<gini = 0.0<br/>samples = 1<br/>value = [0, 0, 0, 0, 0, 0, 1, 0, 0, 0]<br/>class = Nok Krachip durian>, fillcolor="#3c39e5"] ;
528 -> 530 ;
531 [label=<gini = 0.0<br/>samples = 2<br/>value = [0, 0, 0, 0, 0, 0, 2, 0, 0, 0]<br/>class = Nok Krachip durian>, fillcolor="#3c39e5"] ;
527 -> 531 ;
532 [label=<gini = 0.0<br/>samples = 6<br/>value = [0, 0, 6, 0, 0, 0, 0, 0, 0, 0]<br/>class = Krathum Thong durian>, fillcolor="#7be539"] ;
526 -> 532 ;
533 [label=<Precipitation_Q2 &le; 129.95<br/>gini = 0.1<br/>samples = 19<br/>value = [0, 0, 18, 0, 0, 0, 1, 0, 0, 0]<br/>class = Krathum Thong durian>, fillcolor="#82e644"] ;
525 -> 533 ;
534 [label=<gini = 0.0<br/>samples = 15<br/>value = [0, 0, 15, 0, 0, 0, 0, 0, 0, 0]<br/>class = Krathum Thong durian>, fillcolor="#7be539"] ;
533 -> 534 ;
535 [label=<Nitrogen &le; 0.875<br/>gini = 0.375<br/>samples = 4<br/>value = [0, 0, 3, 0, 0, 0, 1, 0, 0, 0]<br/>class = Krathum Thong durian>, fillcolor="#a7ee7b"] ;
533 -> 535 ;
536 [label=<gini = 0.0<br/>samples = 1<br/>value = [0, 0, 0, 0, 0, 0, 1, 0, 0, 0]<br/>class = Nok Krachip durian>, fillcolor="#3c39e5"] ;
535 -> 536 ;
537 [label=<gini = 0.0<br/>samples = 3<br/>value = [0, 0, 3, 0, 0, 0, 0, 0, 0, 0]<br/>class = Krathum Thong durian>, fillcolor="#7be539"] ;
535 -> 537 ;
538 [label=<Potassium &le; 1.785<br/>gini = 0.5<br/>samples = 6<br/>value = [0, 0, 3, 0, 0, 0, 3, 0, 0, 0]<br/>class = Krathum Thong durian>, fillcolor="#ffffff"] ;
524 -> 538 ;
539 [label=<Precipitation_Q4 &le; 19.35<br/>gini = 0.375<br/>samples = 4<br/>value = [0, 0, 1, 0, 0, 0, 3, 0, 0, 0]<br/>class = Nok Krachip durian>, fillcolor="#7d7bee"] ;
538 -> 539 ;
540 [label=<gini = 0.0<br/>samples = 1<br/>value = [0, 0, 1, 0, 0, 0, 0, 0, 0, 0]<br/>class = Krathum Thong durian>, fillcolor="#7be539"] ;
539 -> 540 ;
541 [label=<gini = 0.0<br/>samples = 3<br/>value = [0, 0, 0, 0, 0, 0, 3, 0, 0, 0]<br/>class = Nok Krachip durian>, fillcolor="#3c39e5"] ;
539 -> 541 ;
542 [label=<gini = 0.0<br/>samples = 2<br/>value = [0, 0, 2, 0, 0, 0, 0, 0, 0, 0]<br/>class = Krathum Thong durian>, fillcolor="#7be539"] ;
538 -> 542 ;
543 [label=<Precipitation_Q4 &le; 28.6<br/>gini = 0.495<br/>samples = 20<br/>value = [0, 0, 9, 0, 0, 0, 11, 0, 0, 0]<br/>class = Nok Krachip durian>, fillcolor="#dcdbfa"] ;
523 -> 543 ;
544 [label=<Precipitation_Q1 &le; 79.35<br/>gini = 0.32<br/>samples = 10<br/>value = [0, 0, 2, 0, 0, 0, 8, 0, 0, 0]<br/>class = Nok Krachip durian>, fillcolor="#6d6aec"] ;
543 -> 544 ;
545 [label=<Temperature &le; 29.1<br/>gini = 0.198<br/>samples = 9<br/>value = [0, 0, 1, 0, 0, 0, 8, 0, 0, 0]<br/>class = Nok Krachip durian>, fillcolor="#5452e8"] ;
544 -> 545 ;
546 [label=<gini = 0.0<br/>samples = 7<br/>value = [0, 0, 0, 0, 0, 0, 7, 0, 0, 0]<br/>class = Nok Krachip durian>, fillcolor="#3c39e5"] ;
545 -> 546 ;
547 [label=<Precipitation_Q3 &le; 132.6<br/>gini = 0.5<br/>samples = 2<br/>value = [0, 0, 1, 0, 0, 0, 1, 0, 0, 0]<br/>class = Krathum Thong durian>, fillcolor="#ffffff"] ;
545 -> 547 ;
548 [label=<gini = 0.0<br/>samples = 1<br/>value = [0, 0, 1, 0, 0, 0, 0, 0, 0, 0]<br/>class = Krathum Thong durian>, fillcolor="#7be539"] ;
547 -> 548 ;
549 [label=<gini = 0.0<br/>samples = 1<br/>value = [0, 0, 0, 0, 0, 0, 1, 0, 0, 0]<br/>class = Nok Krachip durian>, fillcolor="#3c39e5"] ;
547 -> 549 ;
550 [label=<gini = 0.0<br/>samples = 1<br/>value = [0, 0, 1, 0, 0, 0, 0, 0, 0, 0]<br/>class = Krathum Thong durian>, fillcolor="#7be539"] ;
544 -> 550 ;
551 [label=<Nitrogen &le; 0.865<br/>gini = 0.42<br/>samples = 10<br/>value = [0, 0, 7, 0, 0, 0, 3, 0, 0, 0]<br/>class = Krathum Thong durian>, fillcolor="#b4f08e"] ;
543 -> 551 ;
552 [label=<gini = 0.0<br/>samples = 2<br/>value = [0, 0, 0, 0, 0, 0, 2, 0, 0, 0]<br/>class = Nok Krachip durian>, fillcolor="#3c39e5"] ;
551 -> 552 ;
553 [label=<Potassium &le; 1.785<br/>gini = 0.219<br/>samples = 8<br/>value = [0, 0, 7, 0, 0, 0, 1, 0, 0, 0]<br/>class = Krathum Thong durian>, fillcolor="#8ee955"] ;
551 -> 553 ;
554 [label=<gini = 0.0<br/>samples = 7<br/>value = [0, 0, 7, 0, 0, 0, 0, 0, 0, 0]<br/>class = Krathum Thong durian>, fillcolor="#7be539"] ;
553 -> 554 ;
555 [label=<gini = 0.0<br/>samples = 1<br/>value = [0, 0, 0, 0, 0, 0, 1, 0, 0, 0]<br/>class = Nok Krachip durian>, fillcolor="#3c39e5"] ;
553 -> 555 ;
556 [label=<Humidity &le; 73.55<br/>gini = 0.444<br/>samples = 51<br/>value = [0, 0, 17, 0, 0, 0, 34, 0, 0, 0]<br/>class = Nok Krachip durian>, fillcolor="#9e9cf2"] ;
502 -> 556 ;
557 [label=<Nitrogen &le; 0.885<br/>gini = 0.311<br/>samples = 26<br/>value = [0, 0, 5, 0, 0, 0, 21, 0, 0, 0]<br/>class = Nok Krachip durian>, fillcolor="#6a68eb"] ;
556 -> 557 ;
558 [label=<gini = 0.0<br/>samples = 12<br/>value = [0, 0, 0, 0, 0, 0, 12, 0, 0, 0]<br/>class = Nok Krachip durian>, fillcolor="#3c39e5"] ;
557 -> 558 ;
559 [label=<Humidity &le; 72.95<br/>gini = 0.459<br/>samples = 14<br/>value = [0, 0, 5, 0, 0, 0, 9, 0, 0, 0]<br/>class = Nok Krachip durian>, fillcolor="#a8a7f3"] ;
557 -> 559 ;
560 [label=<Temperature &le; 28.25<br/>gini = 0.469<br/>samples = 8<br/>value = [0, 0, 5, 0, 0, 0, 3, 0, 0, 0]<br/>class = Krathum Thong durian>, fillcolor="#caf5b0"] ;
559 -> 560 ;
561 [label=<gini = 0.0<br/>samples = 4<br/>value = [0, 0, 4, 0, 0, 0, 0, 0, 0, 0]<br/>class = Krathum Thong durian>, fillcolor="#7be539"] ;
560 -> 561 ;
562 [label=<Precipitation_Q1 &le; 75.4<br/>gini = 0.375<br/>samples = 4<br/>value = [0, 0, 1, 0, 0, 0, 3, 0, 0, 0]<br/>class = Nok Krachip durian>, fillcolor="#7d7bee"] ;
560 -> 562 ;
563 [label=<gini = 0.0<br/>samples = 3<br/>value = [0, 0, 0, 0, 0, 0, 3, 0, 0, 0]<br/>class = Nok Krachip durian>, fillcolor="#3c39e5"] ;
562 -> 563 ;
564 [label=<gini = 0.0<br/>samples = 1<br/>value = [0, 0, 1, 0, 0, 0, 0, 0, 0, 0]<br/>class = Krathum Thong durian>, fillcolor="#7be539"] ;
562 -> 564 ;
565 [label=<gini = 0.0<br/>samples = 6<br/>value = [0, 0, 0, 0, 0, 0, 6, 0, 0, 0]<br/>class = Nok Krachip durian>, fillcolor="#3c39e5"] ;
559 -> 565 ;
566 [label=<Temperature &le; 26.65<br/>gini = 0.499<br/>samples = 25<br/>value = [0, 0, 12, 0, 0, 0, 13, 0, 0, 0]<br/>class = Nok Krachip durian>, fillcolor="#f0f0fd"] ;
556 -> 566 ;
567 [label=<gini = 0.0<br/>samples = 4<br/>value = [0, 0, 4, 0, 0, 0, 0, 0, 0, 0]<br/>class = Krathum Thong durian>, fillcolor="#7be539"] ;
566 -> 567 ;
568 [label=<Humidity &le; 73.75<br/>gini = 0.472<br/>samples = 21<br/>value = [0, 0, 8, 0, 0, 0, 13, 0, 0, 0]<br/>class = Nok Krachip durian>, fillcolor="#b4b3f5"] ;
566 -> 568 ;
569 [label=<gini = 0.0<br/>samples = 3<br/>value = [0, 0, 3, 0, 0, 0, 0, 0, 0, 0]<br/>class = Krathum Thong durian>, fillcolor="#7be539"] ;
568 -> 569 ;
570 [label=<Precipitation_Q2 &le; 145.05<br/>gini = 0.401<br/>samples = 18<br/>value = [0, 0, 5, 0, 0, 0, 13, 0, 0, 0]<br/>class = Nok Krachip durian>, fillcolor="#8785ef"] ;
568 -> 570 ;
571 [label=<Precipitation_Q3 &le; 143.05<br/>gini = 0.305<br/>samples = 16<br/>value = [0, 0, 3, 0, 0, 0, 13, 0, 0, 0]<br/>class = Nok Krachip durian>, fillcolor="#6967eb"] ;
570 -> 571 ;
572 [label=<UV_index &le; 3.25<br/>gini = 0.5<br/>samples = 6<br/>value = [0, 0, 3, 0, 0, 0, 3, 0, 0, 0]<br/>class = Krathum Thong durian>, fillcolor="#ffffff"] ;
571 -> 572 ;
573 [label=<gini = 0.0<br/>samples = 3<br/>value = [0, 0, 0, 0, 0, 0, 3, 0, 0, 0]<br/>class = Nok Krachip durian>, fillcolor="#3c39e5"] ;
572 -> 573 ;
574 [label=<gini = 0.0<br/>samples = 3<br/>value = [0, 0, 3, 0, 0, 0, 0, 0, 0, 0]<br/>class = Krathum Thong durian>, fillcolor="#7be539"] ;
572 -> 574 ;
575 [label=<gini = 0.0<br/>samples = 10<br/>value = [0, 0, 0, 0, 0, 0, 10, 0, 0, 0]<br/>class = Nok Krachip durian>, fillcolor="#3c39e5"] ;
571 -> 575 ;
576 [label=<gini = 0.0<br/>samples = 2<br/>value = [0, 0, 2, 0, 0, 0, 0, 0, 0, 0]<br/>class = Krathum Thong durian>, fillcolor="#7be539"] ;
570 -> 576 ;
577 [label=<Phosphorus &le; 0.155<br/>gini = 0.231<br/>samples = 15<br/>value = [0, 0, 2, 0, 0, 0, 13, 0, 0, 0]<br/>class = Nok Krachip durian>, fillcolor="#5a57e9"] ;
501 -> 577 ;
578 [label=<gini = 0.0<br/>samples = 9<br/>value = [0, 0, 0, 0, 0, 0, 9, 0, 0, 0]<br/>class = Nok Krachip durian>, fillcolor="#3c39e5"] ;
577 -> 578 ;
579 [label=<UV_index &le; 3.05<br/>gini = 0.444<br/>samples = 6<br/>value = [0, 0, 2, 0, 0, 0, 4, 0, 0, 0]<br/>class = Nok Krachip durian>, fillcolor="#9e9cf2"] ;
577 -> 579 ;
580 [label=<gini = 0.0<br/>samples = 3<br/>value = [0, 0, 0, 0, 0, 0, 3, 0, 0, 0]<br/>class = Nok Krachip durian>, fillcolor="#3c39e5"] ;
579 -> 580 ;
581 [label=<Humidity &le; 73.9<br/>gini = 0.444<br/>samples = 3<br/>value = [0, 0, 2, 0, 0, 0, 1, 0, 0, 0]<br/>class = Krathum Thong durian>, fillcolor="#bdf29c"] ;
579 -> 581 ;
582 [label=<gini = 0.0<br/>samples = 2<br/>value = [0, 0, 2, 0, 0, 0, 0, 0, 0, 0]<br/>class = Krathum Thong durian>, fillcolor="#7be539"] ;
581 -> 582 ;
583 [label=<gini = 0.0<br/>samples = 1<br/>value = [0, 0, 0, 0, 0, 0, 1, 0, 0, 0]<br/>class = Nok Krachip durian>, fillcolor="#3c39e5"] ;
581 -> 583 ;
584 [label=<Precipitation_Q2 &le; 124.65<br/>gini = 0.464<br/>samples = 276<br/>value = [0, 0, 175, 0, 0, 0, 101, 0, 0, 0]<br/>class = Krathum Thong durian>, fillcolor="#c7f4ab"] ;
422 -> 584 ;
585 [label=<UV_index &le; 3.55<br/>gini = 0.488<br/>samples = 149<br/>value = [0.0, 0.0, 86.0, 0.0, 0.0, 0.0, 63.0, 0.0, 0.0, 0.0]<br/>class = Krathum Thong durian>, fillcolor="#dcf8ca"] ;
584 -> 585 ;
586 [label=<Precipitation_Q3 &le; 131.25<br/>gini = 0.497<br/>samples = 69<br/>value = [0, 0, 32, 0, 0, 0, 37, 0, 0, 0]<br/>class = Nok Krachip durian>, fillcolor="#e5e4fb"] ;
585 -> 586 ;
587 [label=<Precipitation_Q4 &le; 11.65<br/>gini = 0.36<br/>samples = 17<br/>value = [0, 0, 4, 0, 0, 0, 13, 0, 0, 0]<br/>class = Nok Krachip durian>, fillcolor="#7876ed"] ;
586 -> 587 ;
588 [label=<Precipitation_Q3 &le; 128.4<br/>gini = 0.494<br/>samples = 9<br/>value = [0, 0, 4, 0, 0, 0, 5, 0, 0, 0]<br/>class = Nok Krachip durian>, fillcolor="#d8d7fa"] ;
587 -> 588 ;
589 [label=<gini = 0.0<br/>samples = 3<br/>value = [0, 0, 3, 0, 0, 0, 0, 0, 0, 0]<br/>class = Krathum Thong durian>, fillcolor="#7be539"] ;
588 -> 589 ;
590 [label=<Humidity &le; 78.8<br/>gini = 0.278<br/>samples = 6<br/>value = [0, 0, 1, 0, 0, 0, 5, 0, 0, 0]<br/>class = Nok Krachip durian>, fillcolor="#6361ea"] ;
588 -> 590 ;
591 [label=<gini = 0.0<br/>samples = 5<br/>value = [0, 0, 0, 0, 0, 0, 5, 0, 0, 0]<br/>class = Nok Krachip durian>, fillcolor="#3c39e5"] ;
590 -> 591 ;
592 [label=<gini = 0.0<br/>samples = 1<br/>value = [0, 0, 1, 0, 0, 0, 0, 0, 0, 0]<br/>class = Krathum Thong durian>, fillcolor="#7be539"] ;
590 -> 592 ;
593 [label=<gini = 0.0<br/>samples = 8<br/>value = [0, 0, 0, 0, 0, 0, 8, 0, 0, 0]<br/>class = Nok Krachip durian>, fillcolor="#3c39e5"] ;
587 -> 593 ;
594 [label=<Precipitation_Q4 &le; 18.45<br/>gini = 0.497<br/>samples = 52<br/>value = [0, 0, 28, 0, 0, 0, 24, 0, 0, 0]<br/>class = Krathum Thong durian>, fillcolor="#ecfbe3"] ;
586 -> 594 ;
